390 128
388 -0.44850025 -0.9729172 -0.7423584 1.4060735 -2.3295429 -0.39278808 -1.470339 -0.38781607 0.07523642 1.2354198 1.1574427 0.94227904 -0.98029774 -0.93224204 0.17881115 0.81186867 -1.2921659 -1.2603517 -1.7708188 -0.46292704 0.6654303 -1.1003181 -0.46632034 0.2961056 -0.06914749 -0.13186191 -2.085121 -2.4556563 0.53131443 1.8782871 1.5465412 -0.47892132 -1.1939331 -0.8712843 -0.93017775 -0.460378 0.12419947 -2.4016733 -0.88220423 1.7986867 0.6682447 0.245412 1.0141274 1.8135287 -0.36872914 -0.9609623 -0.61112547 1.1787627 -0.8838027 0.11008909 1.8011894 0.9453493 1.2751755 0.20343229 -0.59727097 1.3316555 -2.1534696 0.42346418 2.7457178 0.9424753 0.62621385 1.0510203 0.900263 -0.2989975 -1.2652178 0.33334404 2.037896 -0.92173046 0.2885405 -0.1281878 -3.4060824 0.068963066 0.29011387 0.011543155 0.05588717 -0.04979632 -0.2621269 0.00851362 2.134101 0.0033388007 -0.49862286 -2.3178542 0.4946768 0.9122739 -0.8851882 1.0121206 -1.1926165 -1.3938506 -0.31736675 -0.13274825 -1.8580508 0.43887404 -0.2615431 0.85326034 0.8054324 -0.3738073 -0.06301522 0.16037007 -0.16590124 1.1176877 2.2958932 -1.5238633 -1.2636555 2.8733964 0.3162847 1.1039677 -3.0243096 -1.4658366 -0.81718296 -0.35866547 0.8131699 2.4517095 -0.91454923 -0.0740943 -1.182164 0.17915402 -0.8291982 -0.062208764 -0.39406437 0.8352463 1.6077089 0.6913469 -0.8610283 0.001519586 -0.8425136 0.53076553 -1.3580176 -0.19189467
387 1.3150063 2.1461098 1.2454661 3.1214674 0.8173587 -3.737678 -0.29675898 1.3964127 -0.14065117 1.0855511 -1.8447104 0.23896186 2.2076392 0.32640132 1.1090099 0.13593552 -1.7332094 -0.4221175 -0.28237647 0.65613216 -2.4834032 1.4831594 0.042264372 1.152997 -1.3654468 -1.444273 -0.4264182 1.0156409 -3.0331743 -1.1857864 -0.049208116 -1.8928869 0.19940685 -0.12599465 0.7397216 0.5547121 1.3137455 0.011753763 1.060084 -0.7399846 -0.5194455 0.21873887 1.0582873 1.002069 0.76966655 -1.8353004 0.87705755 -1.7869935 1.03717 -1.4975781 -1.5219455 2.666239 -0.25486606 1.7558881 -1.5219594 0.7848733 -1.5897285 -0.07362694 0.433172 -1.3762609 -1.8676481 -0.8531969 -2.2660403 1.3627666 1.2193149 0.35694912 1.273285 1.2094449 1.6119187 -0.22423421 -1.5816861 0.7737478 1.5436661 3.0359619 -0.017624805 1.7216103 -1.315298 -1.8009257 1.0318958 1.7545159 -0.83532333 -1.6384718 1.8228949 0.31217572 1.2843753 0.9958168 0.7020951 -0.38515082 0.06508238 0.19986516 0.377116 0.69783735 -0.37872717 -0.42880523 -0.7859751 -2.8679168 -0.6622225 0.71288484 -3.2982414 1.2707818 0.13725981 0.030341966 -0.7527967 -0.3309937 0.54817694 2.260959 -1.8975949 1.5139571 -1.7103753 -2.1478236 1.3033808 -2.217864 1.8341707 -0.020664949 -0.97702056 -2.0816905 -0.311336 1.2064732 -1.470818 -1.7065028 1.8936812 2.4535694 0.19625373 2.508373 0.23748496 0.568876 -3.0127676 -2.6645658
389 3.4788394 0.20703934 1.2378591 -0.9425057 -0.1448796 -1.1662616 3.1956046 0.8521212 0.45345077 -0.74054676 0.43747494 2.9808397 0.66814554 1.9848752 -0.09214314 2.4036534 1.820852 0.601864 1.1895255 2.515745 -0.94153714 -1.5487694 -1.4122131 -0.39015198 1.4631255 0.31550542 -0.3616344 1.0296209 0.49876904 -0.7839197 -2.0535543 -0.55872726 -1.4692495 0.32682303 1.6013392 0.09984665 -1.651272 -1.6539323 0.6491316 -2.5766153 -1.3962576 -0.7346697 -0.9888772 -2.628337 -0.46517104 0.3442414 0.81118375 -0.92358 1.683844 0.5912969 1.8336543 -2.437742 1.1154987 0.64332354 0.2932918 -1.3755556 -0.093716726 0.019745937 1.0002526 4.0374374 0.7528 -0.32571146 0.72967863 -1.8160843 -2.466007 1.3124399 0.5880478 0.12849785 0.4304557 1.3511188 0.46780226 -0.39166874 0.226016 -1.5613711 -1.2050157 -1.45145 2.8014798 2.0436325 -1.128301 -0.0021890942 0.21006137 -0.34995815 0.2404859 -0.30812684 1.2993923 -2.266676 0.39838794 2.324487 0.22600606 0.6339689 -2.0197601 -1.0303679 0.20464107 1.2363174 0.74242646 1.670197 -1.2908895 -2.4653456 0.10313243 0.9862881 -1.8307872 -0.97229344 2.2846315 1.887561 0.9820176 0.793514 -0.12689355 2.1973865 -0.68707114 2.6909747 -0.4866031 -0.9103947 -1.1848519 -0.3210004 -1.4395094 0.01115899 -1.4985386 -2.117713 -1.2125974 -1.2990738 0.37060985 -0.53284115 0.78062063 -3.3589427 0.5216044 -0.9862713 -0.7682422 0.538803
395 -0.35755494 0.12905456 1.6897464 -0.82365125 -2.3680508 -0.70581585 -1.7805357 1.1235013 -0.597278 -1.5763153 0.79540503 -1.3079458 -1.9677402 0.4292941 0.8594995 -0.9887974 -1.676087 -1.320492 -1.3771173 -2.6783364 1.6057113 1.7935601 -0.95339566 -0.60180473 2.2358422 -0.6328911 -2.1778429 1.2615952 -1.3009148 0.86855966 -1.2145712 -0.3750811 -1.6308584 -0.6477502 0.21406469 0.49423438 -0.70942867 -1.0946193 -1.9218997 -0.8510068 0.3876061 -0.098561 -2.541163 -0.8266055 1.353972 -0.66544896 -0.39380473 0.8355377 -0.98424596 0.16839813 -0.29054317 -0.37062874 0.13311304 0.6683292 -0.5135415 -0.06595917 1.9846604 -0.52289134 1.1159238 0.3854898 -1.7077335 0.99797463 0.10774584 -0.9477841 -0.33096004 2.3477912 -0.53922784 -0.18270202 -0.8349039 1.2692126 2.2394571 -0.92338645 -1.219892 -2.4591217 0.6761394 -0.85656273 -1.5668963 0.56116134 0.07302538 -0.7561483 0.31376702 0.6175893 -1.5813726 0.35096458 0.6423483 -2.020573 1.2275218 0.3172819 -0.09268506 -0.08074181 -1.3339083 -0.65309197 0.32324737 1.8303467 -0.7156628 -0.4491783 1.9090806 2.7132201 -2.038306 0.4305496 -0.56583613 -0.24594867 -0.36898378 0.4918604 0.06415267 0.8022897 -0.05691889 0.48004854 -0.42358753 0.7757995 -1.3132424 3.8810575 -0.93746066 -1.4597323 0.8943268 1.0197504 1.315778 -1.7357343 0.3235567 0.28387645 -1.3621234 -0.55796057 -0.6071669 -0.1815241 0.37436217 1.9756565 0.18422773 1.6946886
290 -2.7954054 0.04511192 0.024328843 -1.0467033 -0.5667687 2.454525 -3.7340972 -1.6706187 0.9486051 -0.11334603 0.8585037 0.7657657 -0.61277455 -0.4024399 1.5649601 0.43025497 -0.64863604 -2.1353233 -1.0445864 2.3122444 1.7840464 -1.1226027 -0.7099529 0.54772615 1.4836599 -1.4872725 -0.045133658 0.27584615 1.0358872 0.09943113 -0.44826743 0.86438185 -0.48185426 -0.18048644 0.62929326 -0.13439587 0.34228447 -0.11669102 -0.45978433 -1.4195977 -1.7157227 0.89405966 -0.9791299 2.0097198 2.2819679 -0.219251 -1.8064387 -0.100134715 0.8175264 -1.1714616 -1.9885601 -0.77781075 0.56320554 0.9484667 -0.6810017 1.4390242 0.3865245 -2.0350566 1.9097975 0.9268621 -0.47572732 1.1528504 1.9001946 0.23959386 -0.74971175 -0.14932586 -1.5435028 -0.605934 0.13109002 1.5166985 2.3197498 -0.009670411 -1.7005652 1.8157992 1.4732807 -1.266713 -0.64018416 -0.60097617 -0.57189405 -0.18276209 0.8141885 1.0750087 -1.1190294 1.147454 -2.2518852 0.9084301 -0.21300349 -0.194681 0.98460364 -0.80157536 -0.27830648 -0.4738831 0.3022344 2.528221 0.53974473 1.7653283 1.1546848 0.40504622 1.953177 -0.7811186 2.1351414 1.8685837 -1.0881027 -2.353014 0.08481607 2.054814 0.7315665 -0.18948437 -0.8154697 3.1062472 -0.39062914 -0.8194722 0.39659157 -0.60542244 0.21045704 1.1238722 1.1989546 -1.823604 -0.53449553 -0.45129493 0.20402028 1.430452 0.4367166 0.28679466 -0.07919906 -0.55618984 -1.2168247 1.448207
443 -1.1865348 -0.6088595 0.36289105 -0.95127636 -1.7386262 -0.2724537 1.3504382 1.7633001 -0.09641683 -0.053936146 0.52699363 -0.90105575 0.64391714 0.18668285 0.43626726 0.81405157 1.659647 -1.2435168 1.0080632 0.060214862 0.84981966 0.9554558 -1.3695644 1.3117297 2.5567708 1.0837663 -3.8571923 1.7469591 -1.4037693 -0.3601287 2.6339426 -0.10533051 -0.34820202 -3.0055618 1.1033438 -2.0588043 -2.1358938 0.42110765 0.35000122 -1.8581432 -0.54095167 -0.57577443 -2.8453896 -2.1451192 0.656735 -0.78313273 -0.15767908 -0.12000292 1.038549 3.0434394 1.8705266 0.07563201 0.8773316 0.64063615 -0.80254745 -1.2514478 1.3827304 -1.0994017 0.7134747 0.8202117 -0.21370329 -0.60183376 2.268549 -0.93525344 0.28251624 1.9761264 2.453749 1.0398566 1.3858798 -0.45771626 0.89689404 -0.5188148 -1.5713781 -0.6001993 0.5161087 -2.37594 -2.2658412 -0.85380226 -0.32564348 2.224409 -0.0834646 -0.3408513 1.7856123 -1.9206715 1.6245468 -2.4598217 -0.8518368 -1.0818211 -0.32023215 2.5063825 -2.7637248 -1.0479519 -0.7359988 1.2392757 -0.3497121 0.7294812 1.2886027 1.0691876 -1.8289497 0.550725 -1.7453082 0.6974186 -0.079534754 -0.16640902 1.3006464 2.359661 0.22101589 0.30664414 -1.7002358 1.329636 -0.011350065 -0.2885776 -1.2866518 -1.7160468 -0.41314757 0.6980699 3.414316 -0.8349688 -1.1200911 -0.41015437 -0.0585457 -0.23387799 -0.7165956 0.45953768 1.0583249 1.4294205 1.182596 0.41815394
538 0.7766798 -1.2760551 0.76948535 1.7240609 0.74670017 -0.043990307 -4.179038 2.0929046 -0.64483535 0.58949906 0.5304303 -0.069024056 1.1549556 1.1680579 1.1557542 0.17603855 -2.5586407 -1.2457184 0.3292618 -0.3934944 0.8921585 0.85721207 1.6971536 2.008165 -0.0967104 -1.0244162 -0.46993077 -0.0013702867 -1.2006599 -0.42775983 0.6709111 -0.8554126 -2.0745666 0.5432653 1.3899057 0.17958486 -0.5711001 0.8887408 1.1098015 0.29674432 1.8361233 1.0947005 0.8098127 -0.71686167 0.32281 -0.8459628 0.8282158 0.06209412 -1.5349321 -0.7103255 0.26758224 1.1500763 -1.0531273 -0.03350283 1.8947022 -0.17515662 1.3477215 -1.349127 0.3738356 0.22007443 0.14951694 -1.1574174 -0.17393504 0.30060557 0.10991048 -2.2514715 1.0514739 -1.2895488 0.86090505 -1.9580765 0.94974864 -0.061200995 -0.6458644 -0.40790427 0.13644618 0.19234067 0.34980783 1.4889982 0.102471806 1.1266116 -1.882603 -1.9791619 0.5030538 -1.7372652 2.765459 0.46897203 -2.0707128 -1.2085252 0.14280042 -0.03455554 -0.99537164 0.23832701 0.4008088 -1.2329593 -0.56998384 0.12653454 0.35387838 1.2867163 -1.6899612 0.73675925 -2.2343261 -1.5860933 0.37850899 -0.7671056 -1.2591276 -3.1865213 -3.3538113 0.50771374 -1.4853307 -1.5249833 -0.99406743 0.62912476 1.2328864 -0.30639157 0.9449804 -0.73310065 1.3078473 0.8385175 -1.063803 1.0144038 -0.14521849 -0.35879037 -1.9265196 -0.68760335 -0.050586417 0.68269503 -1.3188926 1.0286535
244 -0.5454398 0.627749 0.81400126 -0.060523324 -0.11956419 2.365743 -0.6668363 -1.5591894 -1.207274 -1.1590313 0.64516246 -0.09927844 0.40444297 0.68307245 0.18039328 1.7536695 0.5363776 -0.8564896 0.24729659 0.4333944 1.0903382 -1.9667101 0.4514901 0.74825627 0.1669007 -0.1691773 0.528124 -0.84629166 -0.994976 0.6544973 -2.0148492 -0.70233196 -0.73074055 1.6418706 -2.398066 -0.10654955 -0.34528708 -0.14483854 -0.50974655 1.4562953 1.8722864 2.6468053 0.48227838 -0.21677883 2.9729035 0.2693676 -1.6539246 -1.857569 1.6437585 -0.46537805 -0.7754586 0.30508673 1.4250163 1.7281437 -0.8070363 1.8244206 -0.48689547 0.54397595 1.8159261 1.5538961 -0.89396024 0.39972264 1.2120063 -1.2476509 -0.749695 0.6700863 -2.0486515 -0.6057402 -0.11647893 0.0021786403 -1.3305746 1.7456025 -0.66312057 -0.061498865 -0.4442962 -0.29698357 -0.32492486 -1.92973 0.62943625 2.6772273 -1.9830761 0.03763453 -0.3453022 2.22607 -3.0687475 -0.03946445 2.6039388 0.9429979 1.0097594 0.04884722 -0.9948229 2.4444413 -0.5186233 -0.70390785 1.2704101 0.49318194 0.5362836 -0.92015195 2.6606772 -2.5630047 1.6961521 -0.883445 -0.7594494 -0.46006334 -0.46622378 0.74592245 1.6563216 -1.5939277 -1.3904815 -1.3009547 -1.2811241 0.44512928 0.9332577 -0.5710873 -0.4005782 0.34171537 -1.0246701 -2.5825062 0.973424 -0.08086359 0.42493013 1.3017886 0.8425742 0.67275655 -1.8950506 -0.06934741 -0.55340624 0.57778233
393 -2.6060622 1.0216 -2.1015997 -0.23713903 -0.9220673 -1.3733778 -3.1701922 -0.3232714 -1.7744085 1.0229255 1.068867 1.342313 1.2763196 0.43840194 0.603605 2.8538542 -2.4713998 0.0002156336 -0.3463914 1.8745291 0.539551 -0.31712568 0.8660278 0.5609034 -0.8096645 -1.0314485 0.83816767 -0.8155025 0.034668278 0.88591266 2.5397067 -0.23258865 -1.3914229 1.3867704 0.7918959 0.709182 1.4753088 1.9862113 0.49821484 0.7297552 1.7904868 -0.569934 2.8828807 -3.085533 0.8871441 0.44860366 -0.7797048 0.31095147 0.8067026 -0.35439417 -0.5601231 0.19794497 -2.4203842 -1.9645103 -1.0021232 1.3179638 1.3511145 0.105060026 0.73752666 4.5256 0.2437611 -1.1135126 1.521893 0.34126452 -0.96502846 -1.3648753 -0.57834834 -0.79099864 -0.3861201 -0.86841786 -1.0069882 1.6375759 0.28143215 1.9736111 0.7350085 -1.5117807 -0.5581805 -0.3130189 -0.7485766 0.10684322 1.0665535 -0.4098857 -2.3803208 0.44825867 0.14298892 -1.180748 0.9994897 -2.048129 -1.9255372 -1.2379838 -0.91305256 -1.3457233 3.250539 1.711293 -0.14480318 -0.8103418 0.6602084 -1.349065 1.9945275 -2.008631 1.1345953 -1.8157111 -1.4212908 -0.042111535 -0.21842465 1.3134426 -0.9804386 0.4963645 -0.21321848 0.31152815 -1.5391257 1.1914628 2.6419973 1.1342201 1.7776002 -0.87340903 -0.23306818 0.13808744 -0.37983838 -1.6479311 -0.72675353 0.53825647 0.89791626 -0.20663549 -0.20914832 -1.0069593 0.12178813 -0.25562662
308 -1.1668645 -0.24419035 -0.7547129 1.3889859 -1.8151983 -0.64206475 -1.7468501 0.33263952 0.8779262 0.7452242 -0.23007832 -0.28738156 -0.4730055 0.13647178 1.3413742 -2.6138237 2.6489387 -2.4491322 -0.061187215 -0.7660764 1.0442827 1.4137126 0.30599552 -0.3374022 -0.85374725 -1.9956249 0.13588414 0.32365146 0.059419196 -1.2943091 2.665849 -1.0598512 -0.28430408 1.0900297 2.2865481 0.12507787 0.63956225 -0.27351657 -0.59003747 -0.77506787 -3.4887521 -2.2195065 0.5941819 0.22428337 -1.0578008 -0.229032 -0.5240574 1.9992894 -0.50489 -0.3849481 -1.3122058 -0.47848803 0.49145022 -2.03687 -1.4447081 1.7754738 -0.35765854 -3.1503544 -0.70006996 -0.36725196 -0.21858987 -0.67273027 -0.14473127 -1.7296046 -0.07938186 -0.4172922 0.59126747 -1.1377563 -0.2431043 -1.2062018 -2.1904445 -1.3718371 0.6351407 1.5004145 0.4833766 0.028056543 0.618748 0.100463584 -0.32550666 -0.42529938 -0.17327228 1.0326027 -1.7488422 -2.1402805 0.6103445 1.1025858 -0.26070234 -1.7159379 -0.08114198 1.4326965 0.26211774 1.0201828 -0.0383202 -0.6643017 -0.63529694 1.3958937 0.32786778 -0.54685867 2.196434 -2.766885 2.4607303 0.6147127 -1.1423792 1.3551953 1.7755809 -0.019477857 0.817875 -0.73967594 0.87037957 1.9297234 1.5369824 -0.803141 -0.6278798 -0.37445492 0.5335574 0.28008565 -1.7612711 -3.5540636 0.6646133 1.7766228 -0.7337722 2.007879 1.171907 -0.83007884 1.6829493 0.59684366 -3.037329 0.746312
93 -0.8154904 -0.82774514 -0.94377476 -1.2516583 0.11180861 0.5334037 1.5553336 -0.86901546 -0.1457897 -0.22165267 1.1193547 -0.15201862 -1.9502834 0.31983867 0.7685391 0.24514957 0.114724666 -0.16857013 -1.8366956 -1.3685825 1.737406 0.72623557 -2.1140332 -1.5106425 0.56167674 0.8622346 -2.6221097 -1.3689145 1.0181774 -0.8307098 -0.47254935 -0.86730427 -1.1705722 -1.4545834 -2.6338975 -0.42864582 -0.86974436 -2.0108404 -1.5602486 -0.38265422 -0.2709771 0.78476876 -0.658021 0.7045426 2.363448 0.51313114 -0.3478078 0.8805928 0.75354034 -0.27258116 0.19441849 1.9718243 0.21797425 0.96552724 -1.4407651 1.9742464 -0.7285788 -1.0021154 0.2101521 0.14838189 -2.1725469 -0.14241084 2.7635705 -1.7144766 0.28204042 0.5822949 1.2844821 -1.3846558 -1.5032859 -1.3623827 -0.60395074 0.055330336 0.72367114 0.9330386 1.7076739 0.4080576 1.3530043 -0.9321306 0.46514064 -0.17756519 -1.0681287 0.77296686 -1.6864645 -0.48839805 -0.93321425 1.1588742 1.7377204 -0.8319872 -0.21932703 0.20853081 -0.016046489 -0.8162389 -0.2676081 2.0957174 0.8186221 -0.89284956 2.179576 1.5525812 0.61782134 0.24050109 0.025596257 -0.6442206 0.42194292 0.4342461 -0.33453137 0.6504107 2.2434125 -1.0065006 -1.0342606 0.4015953 -1.0644835 2.1359048 0.81251633 -0.84323514 0.41086847 -0.7245838 -0.8657938 -1.9134597 1.7445621 -0.05614906 -2.0035896 -0.67818975 -0.21476923 1.6495388 -0.071862325 1.0500202 2.9285514 -0.17194407
394 0.8153599 -0.57324964 0.2270468 -1.5765679 -1.3991758 -0.7286775 0.34159973 1.5010388 -0.7864641 0.352295 2.8478115 1.5652539 -3.0821126 0.29665145 1.2457373 1.4382689 -1.4186895 0.3336908 -0.99541265 0.99941355 1.2075315 -0.22620994 -2.9436483 1.3904457 -2.4210606 -0.98455507 -2.44427 -1.2063379 -1.8987888 2.3670242 -3.3416386 -0.20250277 0.4156235 -1.5440874 -0.10588896 1.1286155 0.48625284 -2.2924767 -2.633213 -0.092515595 0.3819429 -0.4786095 -2.3973207 0.82453954 -1.1505147 0.27624628 1.1488363 1.6422977 -1.328576 1.8251568 0.68895376 -0.5369349 2.9119387 -0.83325607 0.42352775 -0.5981676 0.31254318 1.3695935 -0.13258111 1.0553635 -2.6450973 1.4138467 -1.2748134 -0.18255441 -1.6399877 1.9247212 -0.38964176 -0.12234866 -2.5076282 -1.7797414 0.007808258 -1.5869327 -0.9953753 -0.13527025 -1.2751368 -0.10582937 0.7952586 1.6673212 1.6301237 1.4613124 0.31508586 0.05580834 -1.0038493 1.8298984 2.0927083 -1.9399871 0.8589354 0.76008385 -1.3468329 -1.0096692 0.43666613 -0.22291055 0.5041465 0.11052621 -0.5013182 -0.62023175 -1.3247305 0.29842055 0.5417564 2.054383 -0.7562649 -2.6801522 -0.20753013 0.74290323 0.84890014 1.5227772 -0.43959785 0.18996571 -0.036522776 -0.37960795 1.3568679 0.49769297 0.62400657 0.3049553 -0.3743199 0.30710718 -1.5172901 0.018180003 1.0042025 1.6329201 0.406334 0.8454849 -1.5965056 2.9628375 -1.5552988 0.26087135 -0.49748924 1.6661592
734 -1.6288798 1.700617 -1.608664 -1.4559847 -1.0065426 -1.3821002 0.3131462 0.34316608 -2.2129333 0.9812318 0.0028825935 0.5204074 0.5909303 0.544696 -0.86890525 1.4514797 -2.3272753 -0.5332618 -1.0068858 -0.72441435 -0.69734323 2.2148454 0.3260123 -0.9731206 -0.27544945 -0.19312568 -0.6403741 0.5755699 -2.5438688 0.7509371 -0.5928919 -0.035542436 -0.4530159 3.001564 -4.0986786 -1.83516 0.18382521 0.21512441 -0.09267352 0.88598764 1.7110331 -1.798824 1.8673786 -2.9141483 2.5693302 -0.11832378 -2.1532545 -1.8593246 1.2317488 -0.13786413 -1.1689689 1.2440972 -0.8312349 2.6511805 -1.4436972 2.4251366 -0.15386938 -1.2341845 2.0872493 0.42096958 0.036210332 0.5328797 -1.0385915 1.3684746 0.76621383 -0.17617518 -1.4112756 -1.0627058 -0.35107973 2.0812898 0.09903947 0.57847655 2.0198977 -0.41034296 -0.76949966 -0.99262863 1.1380765 -0.94700915 0.26058137 -1.2453477 -1.4546751 -1.0601289 -2.692326 -1.451394 -0.06198908 0.4181504 -1.3008671 -0.32293546 0.86992687 -0.6783965 -0.54012084 -1.9983349 0.9333118 2.3112195 -0.7420687 -0.41076392 3.5205214 1.3855606 2.3872516 0.39356023 -0.60712254 -0.90713537 0.26146674 0.8038754 0.96878326 1.2191867 -0.5863525 0.93353957 0.6043684 0.39684576 -1.6227152 0.35122523 -0.6730752 0.92705625 0.31340188 -1.1839206 1.0072163 1.6275816 1.6468452 -1.24661 0.036689144 1.5707406 0.74049175 0.21196857 0.5162163 -1.1532539 2.3870482 0.18628913
392 0.63109183 0.50140667 0.0208079 -1.0794058 -1.4275155 1.6137646 0.20249884 0.20024678 -0.18395038 -0.3579177 -0.8823957 1.0883893 0.88764256 0.6537705 -0.28319213 0.10485395 0.16334423 -0.48653647 -0.04216918 1.0209817 0.636637 -2.224034 -0.66363186 -0.07026312 3.0894806 -1.3551 0.3176766 -0.17183894 1.1737659 -0.7093319 -2.0691786 2.732048 1.4306484 1.5524726 -1.1337882 1.770807 0.54934454 1.2462149 1.1714425 1.7198513 0.031570997 0.41343844 0.54483694 -0.7391257 -0.90359825 -0.25171992 -1.9069262 -2.3543942 -1.0325495 1.8716179 -0.45043644 -0.36463988 2.6081147 0.5210096 1.8251015 -1.0286223 0.79989374 1.9994279 0.049752623 1.7914675 0.9242222 -0.43179417 0.17591304 -1.3038307 1.3261558 1.5021998 -0.71524185 -0.69691354 -1.9148018 -1.4155242 0.24704368 0.7889789 0.419428 -1.1288106 0.3100175 -0.6555031 0.69821763 0.04072003 -0.76463515 1.7128314 -0.26579878 -0.50091624 -0.22974262 1.6287352 -0.7715426 1.0261455 1.9306369 0.13587631 -0.7700139 -1.7295854 -1.1504776 1.1373718 -0.31174898 0.9135846 1.4817944 2.8468368 0.89896595 -0.92225856 -0.39660475 -0.9255044 0.17455569 -0.629576 0.6796959 1.4244797 -0.033028007 0.058765158 0.40051475 0.9432699 -0.08163691 -0.5129767 -0.06428364 1.2160287 -0.55670786 -2.5785308 1.7620211 1.0134381 -1.2460215 -3.01567 -0.7476721 0.5093437 1.4974488 0.5144795 0.5581396 -0.8853127 2.391834 0.47801712 -0.57789344 0.56010455
39 -1.084682 -0.9526769 0.6988545 -1.4365554 0.55327696 -1.7921463 -1.3170928 -0.17129143 0.9365581 1.4403464 -0.23861866 -1.2277654 1.3910642 -0.1767139 1.2486912 -0.33356622 0.18599582 0.36697128 -0.40505698 1.0563262 0.52278936 1.0202135 0.59048504 -0.43668047 -1.349585 -2.5082836 2.1115048 -0.0016971884 -1.4053967 0.5659303 3.4843311 1.5525942 -2.1942744 1.975595 2.240554 0.54783666 1.2591276 -0.07878027 0.84617 -2.93596 -1.7156167 -0.81651765 1.2201854 0.68644017 -1.7789888 -0.025107767 -1.5778354 0.38853538 1.1871977 0.37030616 0.08724276 2.5330114 -1.3174438 -2.2908475 0.43801716 1.0833536 0.81413156 -0.8385781 -0.82607317 0.54977036 -1.4615203 -0.59284365 0.34437546 1.1746712 0.5705916 -1.0907053 0.48331192 1.2828959 1.9754945 0.012908167 0.21823725 -1.6675831 0.5008011 2.8606477 1.1995182 0.50257975 1.233148 -0.29610473 -0.5014608 0.57298994 -1.0926977 0.24062225 -1.0800132 -1.2895764 0.4135008 0.4947081 0.30155528 -3.1265543 -0.5584843 -0.9797431 1.819618 -1.4422853 2.2760334 1.248199 -0.27927715 -1.3191445 -0.8378676 1.0571976 1.4539226 1.2849419 -0.26742285 0.08684809 0.27966398 0.29918003 -2.180972 1.1744716 -0.682494 -0.8199232 0.3680884 -0.64266956 1.4913605 0.8964382 2.6032825 -1.134442 0.77019376 0.027956862 0.7998798 1.2846564 -0.9132285 0.27941257 1.676941 0.5326395 0.7685905 0.11482432 0.46126404 0.007878508 -0.8988022 0.7316071
592 0.45657876 -0.32911247 -1.1824393 -0.5005053 -0.27518123 -0.4438712 0.745883 -1.6781782 -0.9362999 -0.32584015 -0.47320205 0.95366484 -1.9932237 -0.79106015 -1.561491 -0.6658034 2.6739388 -0.52190614 -0.99623924 -1.575587 0.28694376 0.30630055 0.96590996 -0.717185 -0.33755964 0.33168605 -1.5970801 -0.7066387 0.5296478 0.78549767 0.09193634 -0.3092353 -2.0703912 -0.29539892 -0.8241987 -1.7103122 -1.8887281 -1.6752722 -1.203544 0.5546974 -2.6057835 -0.20453101 0.102485225 0.8391922 0.04256224 -1.3655139 0.064578846 0.21013497 0.5542766 -1.0919486 0.81349736 -2.0399358 0.39408287 0.6965354 0.39859226 1.2213897 -2.58648 -0.08447255 -1.5126348 -1.1191665 1.1424263 -1.0504915 0.19994482 -0.059328385 0.6168582 1.0751728 -1.8639239 -2.1100447 -0.061055105 -0.84292185 -2.1165628 -1.3467882 -0.9045059 0.39854887 1.6163131 -0.4015238 1.820369 -0.098698564 -0.65284777 0.021516174 -2.0013661 0.5013312 1.4038051 -1.9451023 0.49738112 -0.87506485 -0.7767796 0.39960718 0.13058314 2.6412845 -0.14081952 3.0429046 0.39580548 -1.8665175 1.9965615 0.7170112 -2.6315303 -0.075242735 1.2956994 -1.6060263 0.999769 -1.3077213 2.3437724 1.4670215 -0.24125353 -1.9174551 0.79380244 -0.80059457 0.49449298 -0.998768 -0.5214122 -0.39668685 -1.7989285 0.12362214 -0.38973942 0.19173717 -2.8341293 -1.5920178 1.624292 0.3488815 -1.0745906 2.4251368 1.6276164 -1.469839 -0.5455712 1.1885589 1.1526858 0.12567349
270 -1.0868729 0.17203091 -0.90033174 -0.7248438 -1.9514385 -0.4538461 0.09141586 0.58685845 1.2651862 -0.20355333 0.57855606 1.1686406 -0.42222074 0.57840854 -0.3191181 0.7811301 0.5101459 0.6786532 -2.0480587 2.0387096 -0.8215616 -1.464763 -0.6313684 -0.38159403 -0.50834304 -0.6730732 -1.4908901 0.3197969 1.3479447 0.93289554 0.88039523 0.6966832 -0.37496814 -2.5008335 2.724487 0.26291928 1.8881626 -1.0038947 1.1488527 1.7845718 -1.9839747 1.6326493 -1.1542106 1.5454043 0.01867153 1.0448344 -0.18266018 1.657712 -0.45557356 0.9554026 1.2782627 -0.8850778 -0.8116471 1.8612345 -2.000428 -1.412195 0.4906931 0.010231399 1.354133 -2.4025807 1.2221559 -0.19222283 -1.4056584 0.56008726 -2.7446434 0.97625107 0.46193022 0.44104648 1.1055658 -0.7202664 0.1527349 -1.1131523 -2.522855 1.125923 -0.5605554 -0.67944056 -0.6345863 0.8513182 0.8350698 -0.8585356 -0.16568398 -0.34808582 1.2777611 0.6084823 -0.44471195 -1.5154958 0.979638 -1.4976293 0.6650975 -0.17248468 0.835763 -0.18891819 0.99820536 1.3581119 -0.5925533 -0.057194877 -1.2267122 1.4391354 -1.2896022 1.362469 1.7778367 -0.5449003 0.89747524 -1.1963891 -0.27410832 1.2052786 0.2700906 -0.10502519 -1.033106 -1.5312641 1.9528898 -0.92001766 0.65557444 -0.96470773 0.6297299 -1.8423978 1.4829855 0.8502187 1.5947218 -1.485775 0.75222313 -1.5792638 0.27916363 1.6792554 -1.3740426 1.4828116 -1.1731849 -0.6427565
3 -0.41826892 -1.7409874 0.8793637 0.18928307 -0.2071807 0.40357092 -0.2503207 -0.36664605 -0.6693212 -0.87763023 -0.6150597 -2.1382844 -1.6315875 0.58295506 0.26648736 -0.17041737 0.94385684 -0.5825054 -0.8147565 -0.46505526 0.45264444 0.31061602 0.15637995 -0.48842928 2.7114286 -1.6392753 0.8715364 0.044041585 -0.9796064 -2.3847628 -1.2862978 -0.5426433 0.6027414 0.27159804 -0.8224671 2.4899745 -1.448084 -1.0714922 -0.10014944 2.0664337 0.6601465 2.9830456 0.052939355 0.34600446 1.1675837 -0.8428361 -0.39048088 -1.0656317 -0.48553154 -0.6286212 -1.7783456 0.40813127 0.8409913 -1.2079316 1.1082822 1.3660805 1.9426203 1.6409827 0.9869025 0.6223353 -2.9701502 -0.90717226 0.33870816 -1.3970302 2.2957335 1.4978207 1.2096505 0.1391493 -1.3378305 -0.5716849 1.2214314 0.6544259 0.25349683 0.36080134 0.02531957 1.4490174 -0.29728222 -0.7856444 0.4131354 0.55964535 -1.400234 -1.2732488 -0.20255046 0.45809546 -1.5888135 0.76774293 1.9171928 0.79404724 1.4616791 0.7768816 0.48824129 1.1325761 -2.5929422 0.79211295 1.2886804 0.56049186 2.6960394 1.0028975 -0.28748018 -0.5928191 -0.322096 -1.8936366 0.37032813 -0.7844772 -1.6197422 2.5064666 0.61115956 -0.068398155 -0.58327895 -2.169069 -1.0783186 1.5662562 1.0988251 -0.56806 2.2100825 1.5522959 0.14082457 -1.6798048 0.48464298 0.5355778 -0.05167481 0.19370274 0.45449364 2.0966082 1.9939175 1.3828386 0.03325048 0.63430107
445 -0.017605383 1.1839124 -0.55382437 -0.39124262 -1.0106969 0.53707254 -0.8605961 -1.9101185 0.88466346 -1.2361431 0.77857333 1.4804177 0.70139706 1.2476114 0.6646333 2.0884373 -0.14228524 0.35017508 0.8084363 2.0199723 -0.35533658 -0.9557013 -1.3213708 -1.1367229 -0.34734404 -1.5708708 2.3491886 0.41650072 2.368439 -1.7053882 -0.24943838 -1.528721 -0.8985229 0.4092054 1.5855739 -0.51730174 2.2966933 1.2518648 -0.77202076 -0.23495512 -1.6810136 -0.9591106 -0.6887825 -0.95930177 -0.42999756 0.081571 0.2527347 1.828759 2.2152064 -1.32059 2.5184512 -1.4134064 -0.06968408 -3.1094103 -0.9722264 -1.7474797 0.55344075 -0.857409 -1.1015635 0.7129647 0.5945223 1.5998702 -0.20527251 -0.5348539 1.3792638 -1.2058512 -0.04590366 2.2048445 -0.68180186 0.26952827 0.83321875 0.5615075 -0.46126154 0.25156814 1.285791 -1.3897132 0.00667863 -0.13495962 1.1744114 0.24309199 0.9790256 1.8248206 0.091741376 3.3723667 0.3296814 0.9766451 -0.4121773 -0.6816475 0.82322973 1.4294214 -0.5298128 1.3301071 0.92413694 2.846138 -0.8931384 -0.96096736 -0.61153835 -2.96793 -0.34592268 -0.5628311 0.17271948 -0.20529869 -0.60808676 -1.764488 -0.34119317 0.35860142 0.07434788 0.2337952 0.9329949 1.2392546 -0.49139473 -1.027724 1.5341029 -0.88869256 -0.124278866 0.058014467 -0.8051096 -0.19697697 -1.808304 -1.7246934 1.0579693 -1.2863178 1.218091 -0.531095 -2.7354832 -2.5076094 0.09132479 -0.23972668
226 0.42524853 2.5181675 0.13776173 0.36537406 1.0029554 0.09180477 0.21998319 1.8714423 -0.11529963 1.4757438 -0.24499306 0.37860408 2.3320837 0.18299587 0.65165544 0.027976643 -0.71684384 0.5380172 -0.14010729 -0.54061687 -1.8478506 0.57841694 2.0331652 -1.9931189 -0.7427141 -2.4690623 -0.20731816 -0.32175496 -0.09256214 -1.8696123 1.3220047 2.0091498 -0.35513464 0.36791962 -0.778686 -0.58286935 -0.11450436 -0.63791496 0.29958576 0.9373776 0.22503199 0.7949534 1.2753406 0.5157527 -1.5984104 -1.4231842 0.20228973 -0.527443 2.0204082 -1.1267706 -0.90635186 1.8312795 -0.69946873 0.005744674 -0.29389265 1.8678805 -1.9556177 0.17632367 0.427754 0.3098509 -0.31127527 -0.43774918 -2.5078092 2.6489453 1.1117381 1.154959 0.6963872 0.528359 0.6337792 1.3341593 0.1243951 -0.33574075 1.8849767 2.1507838 0.35582587 3.1325562 0.7769154 0.7974106 1.7173592 -0.35888484 1.1979678 -0.34503365 0.18391313 -1.3158978 0.19960098 -0.49403024 -0.29401305 -0.24091615 -0.5931345 -0.67264324 -0.76320356 -1.8983433 -0.33820185 1.2237873 0.8299448 -0.88763636 0.115813926 -2.0576382 1.418018 1.6104915 -0.305767 0.902286 -1.1758591 1.3067654 0.23826371 1.7962625 -3.0229087 -0.44232044 1.3686529 1.5267131 2.981918 1.1646466 1.4066353 1.186993 -0.13517492 -2.6840158 1.1492062 1.2888948 0.6747028 -0.07444621 0.500808 2.050071 -0.054802142 0.77974194 1.9263251 -0.37637547 0.0814419 0.47481316
484 0.52554446 -0.1882633 -0.9819859 -2.3766043 -0.08413739 -1.0387934 1.1873512 -0.5799636 -0.31234443 -0.8631738 0.89454764 -0.31875622 -0.030924661 -0.14608482 -0.72369874 0.3030063 0.20799285 0.46435565 1.2302576 0.37868467 -0.30678925 0.14498153 -0.021205712 -0.68296164 0.5482056 0.13044246 -0.7608734 -1.3399662 1.1267128 0.15336248 -0.42147955 0.6815203 0.9598246 -1.1457976 0.20922144 -2.029255 -0.15060963 0.99556625 2.4010625 2.6056612 -0.17160912 0.52330303 0.14440379 -0.29882362 0.009343605 0.8580509 1.4861058 2.9702535 -0.047128785 -1.1848865 1.0632168 -1.1296264 -0.8559794 0.13732247 -1.3994526 -1.027743 -1.5853422 -0.86191386 -1.4368918 -3.0528228 0.45961827 -1.5939722 -1.1512759 0.5020807 -1.603691 -0.9075806 -0.9258234 -1.6765444 0.44821933 -0.9065481 -2.1948633 -0.99203616 -0.41003186 0.18265979 1.3046225 -1.6597718 -0.35550803 -1.3787094 0.19077195 -1.3478407 -1.2645056 1.5626975 1.4847032 -1.4873306 1.0080264 -0.64557517 -0.15663044 0.4867882 0.3843162 1.5918232 -1.4943706 0.8765378 0.5672302 1.3160691 2.498268 1.0505143 2.1702254 -1.9111682 1.1807673 0.29390174 0.72155714 -0.6744905 0.97428316 0.38318887 0.9753727 0.04143235 1.3255178 0.8655103 -1.1028202 1.1609006 -0.5286993 -0.37400225 0.24907312 1.2090081 1.17716 -3.191544 -1.4844046 -0.34518087 1.5706148 -1.7004333 -0.7152125 -0.20276819 0.8359866 -0.80197793 -0.7550425 2.2851584 2.4056563 -2.1399286
435 -0.45734915 1.3717867 0.37299445 0.36723077 -1.8567433 3.1586266 -0.3106081 -2.009307 0.9160621 0.0019585977 1.3442812 0.57700527 1.8421892 -1.5365359 -0.9582202 0.90429455 -0.93710864 0.25365475 0.2016287 1.1011 -0.33519146 0.80827534 0.58334017 0.82425547 -0.15196703 -0.6566943 0.7854743 0.3336064 -0.9687469 0.69974446 0.7405099 -0.4462017 0.74774677 2.7978764 -1.4810941 -0.6595737 -0.7468219 0.21760249 1.6353179 1.824574 2.0895932 0.631163 1.0287756 -2.196733 1.0929787 0.041825946 -0.85498285 0.19174898 0.095212735 0.12982276 -0.7068956 -0.5396621 0.38560826 1.750484 -0.41952777 0.65697694 -0.3917576 0.71191144 0.71303976 -3.2178912 -0.9947859 0.24157636 1.4677565 0.13987336 -0.2140788 -0.27563062 -1.5492024 -0.43924394 1.2552297 1.6637952 0.45359427 2.1409266 -1.3805593 -1.0281817 -0.21501647 0.19151616 -2.652914 -1.3852031 0.9552008 0.65270454 -0.1464113 1.6611626 -0.3540859 0.41824538 -2.4697418 -0.15212563 -1.0387925 -2.1757174 -1.4175524 -0.26384252 0.85863537 1.5523543 -1.9882843 3.0254335 0.42634532 1.266707 -0.2062026 0.5785976 1.4582225 -1.7075366 1.3326333 0.6802195 -0.16724958 0.62839735 -1.2639486 2.2633736 0.5542177 -1.2908628 -1.0467254 -1.0941577 -0.17698295 -1.899063 -1.4983525 -0.79984504 0.70007956 -0.6522775 -0.525853 0.30333996 -0.773684 0.63533515 2.134075 1.1103274 0.74095726 -1.1195621 -0.17836227 1.2364439 -1.1274264 0.7028589
261 0.072442226 -2.6687796 -0.5901549 0.33396384 -2.3955984 -2.36033 0.8214677 0.036880404 1.6200742 -0.46264783 -0.47220358 0.8557223 -0.07436077 0.7068588 -0.04931911 -0.12580387 0.9787418 2.1089444 -1.1174362 1.7576331 -0.58832973 0.73462343 -0.72061807 -0.78373575 -2.047494 1.057858 0.5485309 -0.2086796 -0.058748383 2.3281155 2.2615535 -0.22392645 -0.7114149 -1.1376128 -0.40103915 0.48792714 0.8463818 -0.9648123 1.5569352 -0.8056826 -0.4391962 0.7651954 0.77060777 -0.33623055 -1.3200387 0.89864844 0.8785021 -0.6532502 0.9958887 0.47628072 2.3938491 2.1593874 -2.2453525 1.1573778 -1.8740875 1.2943915 -0.8783218 0.475399 -0.7077699 -0.45584482 2.3608973 0.69212127 0.57488835 -0.32283688 -1.7737898 2.6631923 1.5373254 2.8828652 2.0454223 -0.81169504 0.05196163 0.43741786 0.050580155 0.22021498 -1.0811194 0.9806309 -1.3975238 0.45550156 1.8143167 0.34420934 -0.923804 -1.3255188 0.8495886 0.6519839 -0.47929227 0.85687613 -1.6458538 -0.24011326 0.5042159 -0.2052348 1.5226816 -0.60126215 0.79386216 -1.5167296 -1.4034846 0.8373573 -0.87896335 -0.29222968 -1.870347 0.3245413 -0.64006424 -0.4817886 2.4824846 0.159217 -0.12758328 -0.5067039 -0.09382017 -0.7742232 -0.4360646 -1.3976222 3.030397 -0.23919627 0.36340246 -0.29775143 -0.437818 -2.3519006 0.85410655 1.5905097 -0.086262785 -1.8836824 0.1474791 -0.3570062 0.20549902 1.816912 -1.5776403 0.11748692 -2.3916512 -0.36908007
240 0.39383256 2.9621658 1.894277 -0.051170472 0.54601055 2.4537454 0.8466464 -2.3326557 -0.4880447 -1.1007879 0.52019095 0.9482219 2.088354 -1.0769128 1.0003515 0.46490666 0.6975725 1.1854116 2.5257392 0.032530192 1.5219786 -0.11991534 -0.7348727 1.9545364 1.1194375 -0.31545213 -0.47055033 -0.72734433 -0.10894652 1.0701548 -2.0334115 0.40695596 1.888178 1.237678 -0.00096435094 -2.4216692 -0.8060028 -0.12481648 -0.13726898 1.9184375 0.6186189 -0.25914055 0.9878411 0.5173132 0.65283495 1.5851315 -1.7945799 0.70409817 2.1129234 -0.39747465 0.26768437 -1.2656535 -0.07446235 0.9054654 1.6342307 0.22030325 -1.432276 1.8687768 -0.5415047 -0.6744325 -0.62928236 0.6931216 1.2690016 -0.4698194 -1.6267438 -0.9055473 -2.0820367 0.27875647 1.2747164 -1.0287086 -0.0438328 1.3030286 -0.47419903 -0.8221331 0.34622324 1.418323 -0.6351694 -0.03462581 1.0947784 -1.5859268 -1.2131933 1.6333561 0.033567674 2.3016026 -1.3224053 0.81716084 -0.25978044 -0.71535367 0.32335925 -1.9057146 0.07699117 -1.7205209 -1.3783647 0.61362135 -0.072481506 0.6870183 0.8399061 -1.152804 0.5289529 -2.1757379 0.3109185 0.36259177 0.39916557 -1.3816551 -0.8772924 -1.8183314 0.16831858 -0.40259245 -2.0394938 -1.2306577 -0.7168809 -3.1570928 -1.0208914 -1.7097201 0.8682579 0.17668515 -0.7825588 -1.9044139 1.0009191 2.987555 0.9905345 1.8055785 -0.10023795 -1.9935143 -0.6744718 0.80247444 -2.9857035 -0.63979894
870 -0.060696572 2.0651975 0.5586592 -0.21412909 -0.7771551 0.85764503 -2.082889 -0.60349876 -1.4836946 -0.6235057 -1.4828044 1.5360104 -0.9785907 0.018351417 -0.65865123 -0.8140406 -0.5350653 -1.9053235 -1.0633256 -1.7792573 1.7173274 1.5061107 1.2745812 2.0092301 1.6473249 -0.07587212 -0.54007804 -0.28429636 0.07776684 -0.6342372 0.06120658 -0.26475158 -0.4286722 1.4058981 -1.5633926 -2.898573 -2.6893177 -1.3674598 -1.3410662 0.66194993 -2.1870952 -0.09124993 1.1004126 0.27380237 1.6130672 0.20158818 -1.2873105 1.0387264 -0.12785476 -1.7144992 -2.6534634 -1.1560415 -0.6179775 1.6928967 -0.72048664 1.6092955 0.3908008 -1.2958785 0.79959005 -0.16708335 -0.78033966 -0.16286296 -1.0192865 -0.36521867 1.20049 -0.05578346 -0.74260193 -0.32855096 -1.5710918 -0.12197968 1.0811124 -0.056315426 -0.58813304 2.3410106 1.3763005 0.7035651 0.13697724 -0.4225769 1.3984549 -2.2169783 0.56884897 3.371095 -0.35704485 -0.896223 1.4091792 1.4238452 -1.4692693 0.23049776 1.3026006 -1.1544174 0.472155 0.54397416 -1.6482565 0.4240693 -0.5671491 0.3128577 0.6672767 1.0584172 1.1800799 -0.7511802 0.41871962 1.0089537 0.91246355 -1.5316732 0.44500312 -1.406789 1.6917956 -0.8111202 0.26722607 -0.094061755 -0.31553343 -0.9344026 -0.6168944 -0.8554295 0.8580842 -0.5228388 0.6133078 -0.84302974 1.973809 -0.06510283 -1.5363963 2.6512148 2.3484912 -1.0102665 0.73648226 0.4116409 0.5020646 0.7656845
740 0.09527358 -2.1858125 -0.8068971 -0.10618028 0.080214284 0.043199074 -0.4147934 1.2323275 -0.24233039 0.19713408 -2.245141 1.0585488 -2.222897 1.9984518 0.58682144 2.2148135 0.6666782 1.6951439 0.031897634 0.8177558 -0.22841768 -0.25254005 0.83884114 1.8846964 0.6599919 1.7709317 0.22817817 1.1769779 -0.031020561 -0.43345365 -0.7066853 -1.0140558 2.3712175 -0.9801763 2.1886613 0.8789258 1.186903 -0.015337899 1.7019932 1.3105283 -0.30443025 -0.9200978 -0.5664471 0.38564974 -0.37933 0.8652487 0.6680461 0.680984 -2.3836312 -0.020131152 -0.30653298 -0.009524376 -2.436116 3.2782488 0.93502784 -0.5229928 1.6390402 1.3791132 -0.6605808 -1.5805248 2.002446 0.4303029 -0.05720261 -0.56568265 -2.174419 0.31683508 0.42567495 0.98986185 1.0543416 -1.7812904 -1.8912363 1.559915 -0.25452012 -1.3114223 -1.855467 0.77348065 -0.14555141 0.2286572 1.5775775 -1.381848 1.7243528 1.4585104 0.18536472 0.24962482 2.1956117 0.11540359 0.07320113 0.28510103 -0.09960733 -1.3342743 4.1420374 0.79284984 2.195837 -0.783436 -1.3096561 2.6251168 -1.2797227 -0.43887886 0.56331766 -0.23626782 -1.3393486 -0.070662275 1.4442422 -0.014353373 0.19637048 0.33254653 0.43472037 1.4629172 -1.8114369 0.7337419 1.8877718 -0.5818133 1.4154116 -0.16558939 0.06642031 -0.79133296 -1.1182579 0.6452525 1.5538995 -0.058301892 -1.1692053 2.75023 -0.7296279 0.12999246 0.44948772 0.53975827 -0.99354947 -2.0369976
237 -0.09084223 -0.030651096 1.0747191 -1.5966777 -0.8494269 -1.8270417 -1.80055 2.1322746 0.6258249 1.6772356 -0.34249088 0.17452711 1.1405182 -1.4060085 1.1413758 -0.73385674 3.0700073 0.7468813 -0.02205589 -0.53917915 -0.04873184 3.6915362 1.5865316 -0.3747909 -2.8139322 -1.3545963 0.7373777 0.31889176 -0.04969992 -0.19528441 1.193667 -0.18466105 -1.8470109 0.16466652 0.5248385 0.68242955 0.18630125 -3.0691679 -0.7922216 -2.7998638 -0.83150643 -0.474948 0.118554376 0.4232042 -3.647009 -0.0055149146 0.38365385 0.050657377 0.51317304 0.3631044 0.59922713 1.3498013 -2.2189324 -0.5737927 -0.7400726 -0.26745206 -0.6735761 0.22753452 -0.6978136 0.031169733 0.730644 1.0815753 -1.1202772 -0.5160796 -0.23315617 1.0262561 0.9330133 1.4160554 -0.1606107 0.2679843 0.30462933 -1.226043 0.9371181 1.4491496 -0.4602704 2.507997 0.26969084 0.51138073 1.3759615 -0.14604163 1.1774832 1.0213748 -1.7132819 -0.85803396 -0.008372386 -0.5028603 0.9362491 -0.163838 0.64171463 -0.2214963 1.0688399 -2.6028755 0.19884329 0.8539239 -0.58367455 1.4854587 0.07468399 -0.24063806 1.2532746 0.6036353 0.100567795 1.4997952 1.0437794 -0.023671942 0.3245461 0.088960096 -0.35135472 -1.7431414 0.67961335 1.9920173 4.632679 1.2678908 0.59580505 -0.8616228 -0.36122507 0.049041696 0.10163035 -1.1474832 0.23665816 -0.114117905 -1.031302 1.8900702 -0.39477637 2.1190052 1.2478877 -0.51089704 -0.37812042 0.6376486
105 1.7483416 -1.8757114 -0.77528733 1.008637 -0.7729773 0.23151936 0.15740709 -0.15055603 0.36846915 -1.3428818 -0.2670658 0.5261334 0.9279621 -0.20681785 -2.260887 -1.1620982 1.2835478 -1.0816556 0.33819768 1.2511584 1.1404408 -1.1694862 0.56618184 -0.86067826 0.5480322 0.7517206 0.20756742 0.14904794 1.2057511 2.1876628 2.6046004 -0.36685947 -0.76540095 -1.5968614 -1.5276085 0.53103304 -0.36996856 -0.5959136 1.5257654 -0.21292557 0.6357636 -0.913735 -0.6418966 0.7831029 -1.7856199 -1.209025 -0.90306383 0.29968205 -0.2874715 -3.484997 0.44205242 -1.2616022 0.34395954 0.71903384 -0.93861324 -1.1773444 -1.9939344 0.25839707 0.045718983 1.4438837 -0.5422983 -0.83906233 2.8717108 1.1632617 1.1218014 -0.44873735 1.100359 -1.7536174 2.1656463 -0.82336164 -1.728893 -0.24536256 0.06913192 1.5820965 -0.11863436 -1.9322975 1.0114985 -0.38593224 0.4253092 0.696414 -0.27957657 -0.1478775 1.7543025 -1.2687981 -0.8932792 0.18169373 -1.1255805 0.62955874 -1.801554 1.1867527 -0.8304624 2.9845703 0.17052959 -2.721385 2.1735373 -0.33454815 -1.8720347 1.2245821 -1.3186547 -1.7924585 0.715346 -1.1708719 2.0759373 1.0967151 0.4422485 -3.2900612 -1.2411894 0.8631117 1.3896768 -0.6370099 -1.8595527 -0.53309715 -0.057259884 2.213572 -1.5756062 -0.07165178 -1.7312536 1.3119808 0.6347942 -0.2526302 -2.6805358 1.238977 -0.44375622 -0.57967746 0.23963302 -0.8814173 0.91586244 -0.57397074
152 -0.93525374 -2.160661 0.48510736 0.10436441 -1.5771297 1.2199624 0.050909933 -1.2310685 1.5332791 -1.4315045 0.25139886 0.3040435 0.56825465 0.8202598 1.4191537 1.1936903 0.57924765 1.7576892 -2.18509 0.3135051 -0.45061418 0.23150381 -1.9458956 -0.99530184 -0.38919836 -1.3772864 -0.32051605 -2.9369652 1.142362 1.950431 0.5099867 1.4088857 -0.47268358 -0.49894625 -0.65896416 -1.8470658 1.161806 -0.52191967 0.41008064 0.7377511 0.57666475 0.019163156 -0.52603495 0.48112828 -0.15738447 0.9932469 -1.5790426 2.1927505 1.7883475 -0.74208647 2.9765213 1.3773788 -1.2241136 -0.67825127 0.32752275 2.5088744 -1.0685223 0.17147945 -1.2425505 0.33617312 0.030927151 1.7238822 1.1643841 -1.4079684 -0.6772864 1.2024385 0.30032256 2.218112 -0.34444407 -0.79544085 -0.99532294 -0.30429372 0.7450019 -0.5033218 1.6736498 -1.4399904 -0.67827976 -0.65525514 0.81338567 1.3326143 -1.4770025 -0.57316566 -0.71432567 1.4629694 -0.24908556 2.0799088 0.18995906 -1.783311 0.22708371 1.3143669 1.371265 -0.26067463 2.608688 2.2213888 0.21304491 -0.75253415 0.7858511 -0.30841818 -2.497397 0.7240853 0.7468828 -0.0445678 0.5785587 0.63327956 -1.4463094 -1.8460085 1.2999047 -0.6835149 -1.0239478 -0.8182545 1.1855586 1.3142818 1.4422045 -2.4351625 0.70185924 -2.0452728 0.84914887 -0.01287888 -0.9286181 -0.66965014 0.7224983 -1.1119833 0.37232083 0.7604733 -2.0908601 0.45330146 -0.6842298 0.2552607
871 0.96932065 1.0638857 0.17073523 0.68289477 -0.52925503 1.0771075 -0.38816845 -0.2239604 1.042416 -0.2052977 0.9215626 1.7475508 1.9670067 -0.11273162 1.0108153 -0.26989448 0.75066966 0.32088965 0.67330337 0.44457802 -2.8950753 2.090198 -1.826147 0.39888158 0.25314385 -1.7237631 2.435463 -0.52050656 0.6647994 -0.5629056 -1.2518235 0.4598549 0.86065745 3.5072548 -0.44220635 -1.5435574 0.30204296 0.7362209 1.9218113 2.7412255 -0.8570095 0.19640777 0.93949115 -1.885895 -1.8477511 1.2879695 -0.890202 1.8765725 2.022939 -0.78396404 1.4115671 -0.8899854 -0.12985545 -1.5780627 0.5465679 -1.0238003 0.06473274 -0.9541959 -1.3404411 -1.4168068 -1.146412 -0.08144548 -0.4447041 -0.110502005 -0.71276337 -0.5526579 -0.8175434 0.8957871 0.012596967 0.018379629 -0.54328704 1.3980937 0.14335556 -0.4725922 0.10026742 0.5206048 -0.4181438 -0.23053528 -0.6409514 0.13483033 -0.5773287 0.37713432 -0.59863657 1.403144 0.44404796 1.482341 1.0801985 -0.647042 -0.2808937 1.9309156 -1.0070893 0.9592459 -0.90153044 2.9468446 0.64702314 0.43242353 1.1074269 -1.2732947 -1.1241366 -0.82996917 0.12782116 0.07877766 0.982565 0.63110584 -1.0392615 0.2551531 0.8195533 -0.056552086 -0.2945312 -0.101244636 0.030777534 -2.431905 -0.053374838 -1.7292596 1.3067718 -1.2070969 -1.937096 -0.91819733 -1.210498 0.11544707 1.149947 1.5903262 1.0671782 -1.5566301 0.8800579 0.59487057 -1.3583992 -0.18569236
767 0.09396656 0.45493934 -0.13741146 0.77563405 -0.7348525 2.1332135 1.9537046 -0.16247901 0.3328858 0.37223914 0.538308 0.6518686 -0.839207 0.44498548 0.7010688 -0.5832065 -2.2626019 0.7785997 -0.3580229 -0.65953 -0.61987936 -1.1260923 -0.44787914 -0.62125343 0.22811127 -0.99753165 -0.600047 0.9097137 -1.394752 -0.10348189 -2.144682 -0.3709454 2.3596115 2.1442444 -1.1803398 0.23333766 0.026398696 0.2608755 -0.75369465 1.9424736 0.7800406 -0.7594158 -0.62908584 0.46358082 0.6689561 0.7212519 -0.06289917 -1.8956994 -0.6530807 0.9677202 -1.8459518 -0.15833758 1.4623612 1.5439126 0.2721651 0.14027333 0.75173897 1.460217 -0.31174138 -2.6203344 1.6665654 0.889323 0.30042005 -0.40650654 -0.33255044 2.982359 -2.3889983 -2.0155659 -2.5570028 0.00393778 0.2876398 1.0564536 -0.66864145 -0.61007285 -2.428311 -0.588675 -0.16103709 1.0812461 1.5474935 3.2660701 1.5022994 2.0325913 -0.8320278 -1.6021469 2.1358626 0.4704911 0.03957412 0.91771644 -1.6950257 0.6427406 4.0234213 0.09644979 1.3301855 -0.44635442 -0.43797272 1.585657 -0.79798704 -0.6132328 1.5790342 0.40942848 -1.3617582 -0.38926348 1.484294 1.4838619 0.098153524 2.2220666 0.2979029 0.6112481 -1.4097455 0.4153843 0.4466203 -1.6077206 0.8693013 0.05259883 -0.3800179 1.6556469 -2.0983496 0.17367949 0.44621837 0.7616206 1.5972712 1.0787699 -0.44294813 0.8622426 0.715772 -0.6590867 1.1097765 1.4352219
390 1.5513918 2.2869432 -0.6563587 1.7193086 1.9667097 0.61754555 -2.2367656 1.1315689 -0.4168935 -0.24054946 -0.38542768 1.4158372 2.0327914 0.594138 1.439639 -0.5112028 -3.16795 -1.4202027 0.11313161 -0.3635441 -0.78284436 2.6061952 2.4916778 1.9079462 0.8990101 -0.117071666 1.2241493 -0.17184183 -0.6744587 -0.49298832 -0.41393495 1.2180244 -0.9930833 1.1704098 0.7499382 -2.10114 -1.8454392 0.26493442 1.6098334 1.1904559 -0.078044705 0.68087137 2.3177114 -1.1065712 -0.5993829 -0.25384575 0.6998951 -0.10708644 2.4602463 -3.1377118 -0.7150533 -1.3004495 -0.8516786 -0.5186038 0.07347286 -0.45206612 0.57717633 -1.9829218 0.5585518 -0.43638676 0.039319087 -1.9878374 -2.3227508 1.8376498 1.0855423 -0.24583182 0.19158886 -1.1781318 -0.41774225 -1.2375238 -0.085379794 -0.13179961 0.17903827 -1.0175422 0.44717762 2.4475791 1.2965498 0.9370105 -0.09028254 -0.13168661 0.22387618 0.84984785 0.49793082 -1.5325266 2.818798 0.7625412 -1.746889 0.7810207 0.6438001 -1.3169823 -1.4671721 -0.3125592 -1.5271573 0.10121132 1.2942911 -0.5098341 0.870529 -1.1624857 -0.43877444 0.74892074 -1.5907599 1.3503166 0.37636688 -1.168444 0.5525819 -2.0215814 -2.5191243 -0.724329 -0.3948468 1.0325344 0.22024752 -0.034940597 0.85751593 0.35366884 1.371911 -1.8873369 -0.04550862 -0.07512803 0.8181627 -0.98526245 -0.03513047 2.957866 0.5603925 -1.5719866 1.1129364 2.0487463 -0.70121044 -0.57017684
90 -1.0911404 0.69636244 1.7158381 -1.338715 1.7917411 0.4983704 -0.74611306 -1.4847753 -2.4962378 0.6173319 -2.0089078 -1.176058 -0.15225434 0.5938033 -0.26356134 1.3221679 -0.8472582 0.60894334 -1.2439656 0.037816335 -0.8002534 -1.6468569 0.5044909 -0.5033008 -0.04481505 -0.9663556 0.27362615 0.01809568 -0.77972233 -0.8907358 -2.068253 -0.60313857 -0.5912517 0.26509443 -2.130365 1.7052323 1.244825 0.5622178 -0.5865949 2.6736224 1.1417403 1.6838607 1.656703 0.4984548 1.503483 1.6850871 -2.3599253 -1.6055733 -0.49829572 0.26340577 -1.1410493 -0.13282077 -1.046818 1.5400329 1.3106321 2.6715763 2.609382 1.2966274 1.14021 1.1711805 -0.07836918 -1.1450955 1.0691165 -1.0919492 0.3912726 1.3081329 0.5038543 -0.9677843 -1.18622 0.19264065 -0.46227834 1.5885657 1.9880896 1.2080867 -0.5039714 0.4275583 -0.07034882 -0.648779 0.16570736 2.2180455 -2.1884668 -1.1877426 -1.1417707 1.3633623 -1.8090739 1.0272323 3.1636157 0.2742953 1.5970123 0.5740213 -0.89518607 -0.5469306 2.0593789 0.6418608 0.46331838 -0.54381 1.9207686 0.3803139 2.6082013 -0.4377237 -0.087397076 -2.4629073 -1.6021214 0.085276395 1.1400492 -0.26386613 1.4555159 -0.43055013 -0.08363278 -0.019863768 -0.4143175 -0.6237208 0.98207927 -0.1111796 0.21458347 0.36240962 -0.8109691 -0.7778203 0.105730794 -0.1741181 -0.16273494 1.1442088 0.28506026 2.3525946 1.1873124 -1.0072101 1.2622384 0.19932595
236 -2.0636637 0.80157495 -1.6890432 -1.2668219 -0.64931417 -0.7156253 -2.780051 0.586612 0.31007844 0.013296403 -0.99103415 -0.5479849 -0.17024669 1.1592978 1.7135984 -1.3033521 -2.3758168 -0.2001473 -0.7132367 0.69935626 0.7607813 -0.3020889 1.1377611 -1.8963931 1.5109392 -1.2118931 1.8558784 0.22949666 0.78261346 1.9351968 -0.2641138 2.3923697 0.72756463 1.5557557 -0.33184767 0.53774196 -0.13166368 0.9352973 1.3992313 0.15851413 -0.2962642 -0.34231636 1.5214841 0.6849295 1.3496739 0.17351493 -1.0774336 -0.79847944 -0.5118818 -1.2230711 -0.6003792 -1.0536164 1.0291855 -0.31150985 0.3170796 0.70409846 -0.46043316 -1.8643419 -0.22077234 -2.129465 1.8314354 -1.6980094 -1.9352374 0.8630557 0.35281536 -0.5162656 -2.1521943 -2.1777782 -1.2835802 1.3253933 -0.3122029 -1.0796171 -0.1138996 -0.07378624 0.06611016 -1.5194957 0.63832635 -0.5944406 -1.055169 -1.2962554 0.3292014 -0.41739783 -2.1270626 -0.60893196 0.069630355 1.4540596 -2.2590756 2.1166024 1.3800882 -0.8857571 -1.8179486 -0.45642248 1.4175946 1.0995687 0.9156643 2.0259316 2.63226 -1.3768345 0.8017164 0.2819025 0.24760067 1.2223591 0.2950199 1.2564219 1.4316123 0.1403714 0.008899841 -0.66224957 0.62802064 2.710421 0.9415396 0.5360129 -0.1419522 -0.7303917 1.2774048 -0.41721773 -0.29863638 -1.8723522 -0.374017 -1.1900584 0.26202327 1.5864862 0.18738642 -0.78090817 0.2567076 -0.071314454 -1.0292225 -0.45954278
375 -2.4237576 -2.1241562 0.62126535 0.42335412 -0.2679271 0.9955966 1.203848 -2.4688568 1.1298933 0.7941258 -0.45972115 -1.0044725 0.1495494 -0.63945645 -0.8537505 -0.070611656 -0.29568523 1.7999125 -0.517392 0.13118212 -0.7179353 0.43293336 3.4513803 0.42384303 -2.5837882 1.0254248 0.4869805 0.082937956 -2.1979272 0.86484736 3.0214734 -0.42383432 -0.271484 0.13102834 1.1787138 0.12346902 -0.0071316585 0.71615124 1.6477212 -0.5077834 -1.4043266 1.1193027 -0.9561799 -0.17195056 -0.34613496 1.108236 0.37038437 -0.88546157 0.5451026 1.4443892 -0.9640644 -1.1253859 -0.06689407 0.74217093 0.002068632 0.69355416 1.8828441 -0.23077849 -0.7165011 -3.0902386 1.6047392 -1.0428292 0.30868274 0.3333551 0.80562055 0.40157342 -0.2617206 1.0538229 2.1910844 1.2306012 0.188116 -0.9390788 -1.8841221 -0.4136503 0.83656925 0.010383392 -1.7449253 -1.0821993 0.7931225 1.2245214 -0.7940534 2.2725139 1.6737506 -1.0067933 -1.3222017 -0.82339984 -2.0049906 -2.6471298 1.1710478 2.0771787 2.270087 0.20914952 0.00023518899 -0.029382106 0.29341957 0.41654053 -2.1387625 2.169656 0.53155786 1.3680093 -0.37448597 1.7372925 -0.28225034 -0.1407828 -1.3177004 0.57004005 1.393194 -1.1945366 -0.36244646 -1.3671834 1.81038 -2.1531775 -0.65382826 -0.6782349 0.03458897 0.38466367 1.9714233 1.7275612 -1.7291212 -1.2444565 1.0426674 1.1522706 0.16778053 0.43076977 -0.63052475 1.4820251 0.17858963 0.19024009
363 -0.8255906 0.24425502 -0.049175963 1.2802331 1.5615495 2.5234566 0.056640007 0.38697207 -0.6060543 0.6282923 1.6658821 0.47078595 -0.718655 0.6719869 1.9413978 1.5585265 0.55573857 1.4493 -1.914907 -0.7801923 -1.1751128 -0.06012924 0.11014849 -0.3331699 0.527932 0.61706406 -0.49943298 -1.5971491 -0.3197028 -0.27519777 -2.0458658 -0.34937054 1.1145147 2.6339529 -1.5895848 -1.6607423 1.0079249 1.2659843 2.2525666 3.213298 1.9291074 -0.45860386 0.24844396 -2.0037103 0.3560729 1.4046893 -0.88792366 0.107157305 1.2610358 0.33454955 0.5108312 0.70767856 -1.0119822 1.6642455 -0.28729013 1.1071291 0.29309133 -0.36338437 -0.7258127 -1.5900829 0.364147 1.891425 -0.8178355 -1.9643726 0.12537624 -0.28922567 -1.5275214 1.2037891 -2.0364792 -0.74295473 0.43069538 1.0264531 1.327707 -1.6328795 -0.9315451 -0.14540264 0.7111916 -0.3396065 1.3108414 1.5468733 -0.12160224 1.3736093 -1.0747254 0.38529935 -0.43101537 3.289748 0.9378494 0.40912086 -0.26945004 1.7545186 2.6062667 -0.4587832 0.4832046 0.9895458 -0.44825977 0.43852088 0.92199653 -0.08069511 0.7181037 -0.2557007 -0.09718487 0.75502414 1.6374879 1.4127514 -2.6914046 -0.666735 1.2145528 -0.37415236 -2.4177973 0.67260915 -1.7179363 0.24943222 1.2699907 -2.076453 -0.36165202 -0.6060017 -1.7763463 0.53358555 -0.07207869 -0.36982837 -0.41743967 0.6730424 0.5890441 1.4674283 -0.32445237 -0.92968076 2.747647 0.16735817
386 -1.1541784 -2.151267 1.4210854 -2.504158 -0.7797307 -0.6475306 0.58918905 1.1943552 -0.5273924 0.34087485 -0.93758154 -1.2694787 1.1563147 0.13540703 -0.20913297 -0.195323 -1.0141411 -1.3491396 -1.7149036 -1.1220406 1.1465895 -0.042092938 -1.0766532 1.1268867 0.20929551 0.25956973 -0.7087662 -1.1840247 -1.7932869 1.5236225 0.9152281 2.304182 -0.79449046 -1.4878886 -0.27189508 -1.0346485 0.73502403 0.12626466 -0.47595844 -1.2502196 -0.31209648 -2.2197285 -1.4090846 -0.1600369 -2.0693767 -0.5983088 -1.6540442 0.4273438 -0.057661574 2.072324 -0.26124108 1.7886515 1.3280299 -0.7127981 1.661633 -0.40488434 1.9163737 -0.075323224 0.992754 1.311173 -0.27784607 0.8933205 0.41300666 0.72621834 -0.0857756 1.2025437 1.2719638 1.8611989 -0.18744493 0.20815198 -0.64717597 -0.5123742 1.0517101 -0.29316223 2.4645753 -1.4805126 -0.66113347 -0.7402439 -1.8619052 2.7859354 -1.1452368 1.3996553 -0.008982567 1.4642895 1.6746087 1.879319 2.020374 -1.855214 -1.6974319 -1.8845189 0.7335215 -0.8226393 1.3385458 1.5197531 -0.40748748 0.37955144 0.6380722 0.1706894 -1.8002328 0.89610934 -0.65658724 -1.4468076 -0.0027827495 1.4333781 -1.507853 0.5416627 0.066996075 1.4827853 0.1567182 1.0015492 0.52848333 2.4529908 1.0049521 -1.9675455 0.58286786 1.030968 2.8202226 0.4794874 -0.00817352 0.067292474 0.0060031717 0.37317935 1.1092201 0.08249225 0.6924686 1.5429893 -0.8091065 1.6748229
813 -0.3645923 0.7582693 1.1710017 -0.006214585 -2.1154664 1.66848 -0.13099284 0.7467526 1.2801721 -1.1853312 1.4278858 -0.62731147 0.08291028 -1.8363179 -1.0410498 0.67254263 0.40327945 0.77832794 -0.3749175 0.61794436 -0.3015092 -1.319105 -2.0979016 -1.0550547 0.8563104 0.09307088 -0.9109961 -1.5410676 0.72386235 2.097688 0.93531203 1.4786928 -1.0797406 -0.35329652 0.105963856 -0.6197267 0.929981 -1.5512183 0.2840147 -0.14300992 0.83025867 0.79717296 0.5718591 0.37865794 -0.5003099 0.6952198 -1.9125438 1.343493 -0.113516696 0.041926216 -0.028070247 1.1170857 -1.9545878 1.6327329 -0.32235172 0.83517337 -1.0007497 2.605042 -1.5481523 -1.2393016 -1.0788335 0.6273317 2.4618852 0.6806159 -2.0427341 0.25466684 0.8964768 1.4571966 2.0164406 -0.6943504 0.52526915 0.43501812 0.74063545 -0.3143503 0.5947343 0.11245966 -0.07017343 2.5358686 0.067738585 -0.4244067 0.77447665 -1.2495149 0.2342421 1.0791407 -0.80516875 0.34270406 -1.395807 0.092331596 -1.0945544 -1.0590411 -0.051947102 0.8983486 0.84533757 -0.46541443 -0.0051736264 -0.48125058 -0.34591883 -0.17053951 -1.4403157 -0.17076308 -0.82776666 -0.6489429 -0.18623285 -1.2101493 -1.6285845 -2.5221581 0.91786873 -0.8911984 -1.3669312 -1.3558813 1.080678 -1.6991423 0.076984346 -1.5194894 -1.9922571 -1.8907497 -0.47038525 0.9228183 0.2883139 2.048334 -0.16997522 -2.043633 -0.60211515 -0.4019224 -3.1373427 2.2666953 -3.4720619 0.7267391
759 -0.57923704 -1.2803417 1.9840677 1.1851248 0.8755031 1.9084766 -1.1154455 -0.9559444 -1.0728422 0.83652264 -1.9931053 -0.21820663 0.062108204 1.1635118 0.24793036 0.91056424 -1.8269182 1.5298234 -0.756729 0.054443356 0.7448964 1.1278894 3.4905043 2.600394 -1.5446295 0.77929306 0.80770576 -1.575453 -1.4103537 -0.794215 0.22925855 -0.71316767 1.9652381 -0.35231844 1.3379502 0.5363381 -0.88119197 0.68326014 2.76711 2.6083522 1.642948 0.15315622 -0.0059965476 -0.6045113 0.64007705 0.57793343 1.0399655 0.3510709 -1.4853281 0.6629765 -1.994263 -0.009202426 -0.6793767 0.31488362 0.8496721 0.59675765 2.737648 0.70855814 0.83499444 -1.8581313 -0.8075244 0.36891204 -0.019137787 -1.2173762 0.8848625 -0.7890171 0.50151837 0.06282528 -0.2988404 -1.0887461 0.12632786 1.6751624 -0.6487765 -1.5923563 0.17350656 1.5522166 -1.8293536 -0.33704585 1.7726767 0.91159725 -0.002508643 3.5719638 0.389678 -0.21160664 0.111145325 1.8075844 -1.7374781 -0.8042584 0.013614179 0.95941573 3.3125825 1.0164927 -1.4492481 -0.596167 -0.31965178 2.6199727 -0.35385284 1.2221723 0.50691247 -0.6224117 -1.075579 0.067941286 1.1088195 -0.35167944 -2.731885 0.4104351 1.5459126 0.95838434 -1.1847577 -1.0017365 -1.2270694 -1.4325796 0.563274 -0.59064007 0.57013136 0.70886046 0.14463796 0.33488017 1.3417494 0.059770722 -0.9858514 1.7761383 0.014684273 1.298527 1.3301812 0.7082282 1.0115831 0.05361248
636 -0.2970439 0.35451746 -1.0343995 0.7545904 0.8693324 -0.98279333 -0.330213 0.95352876 -1.7241188 0.9535078 -1.0963368 1.6969795 -0.3259462 0.29353765 -1.2958444 3.0106761 1.6068071 -0.10222262 -0.94859976 0.22271149 -0.5420488 2.3035831 2.1601462 1.5366749 -0.6914836 1.2413515 0.4913372 -0.93696684 -0.9016562 -0.39024866 -1.973509 0.2559811 -1.1959605 0.5983517 -1.4528573 -0.29353616 -0.7639816 -1.233327 0.9415357 -1.7271924 1.3353336 -0.1689468 1.8730012 -0.7396443 -1.0440392 0.11378089 0.54633176 -2.2286623 1.7831515 -1.1503545 -1.3047801 -0.934807 -0.15750374 0.96602273 -0.94387376 -0.40062535 -1.7203856 0.67630005 2.4577513 1.270698 0.6331255 0.69269377 -1.5195943 1.0854669 0.65422004 1.0023271 0.23250544 -0.10680744 0.70640445 -0.054281425 -3.271711 -1.2335706 0.77018607 -0.5814849 -0.6675827 2.0866878 2.5283988 0.75175005 -0.106609344 1.4981408 -0.4686993 -2.7665462 0.15359631 -0.032891314 -0.43767044 0.1718977 -0.15203303 1.7701472 0.23035005 -0.5287808 -1.3953283 -0.11092713 -1.241215 -0.66536915 1.1386743 0.29852596 0.560433 1.0107682 0.007761044 1.1614091 0.32477877 1.3158704 1.2125307 0.30087942 -0.07077089 -0.6533755 -0.9963982 -2.4414155 -1.1553866 0.15120082 0.25182664 2.063763 1.2253273 -0.92965883 -1.811887 0.30495262 -2.1560986 -0.7564462 0.5572364 -0.13978668 -0.39195222 2.1834986 -0.12738608 -0.44632578 -0.21235313 1.0754396 -0.09177885 -1.2475628
295 -1.3509482 1.2114272 0.362446 1.6486038 -2.0417342 0.7619497 -0.24452186 0.43260545 1.3867617 -0.994685 0.78909147 -1.2852525 -1.8008562 -2.970102 -0.785798 -0.53745854 -0.41779676 -1.783323 -1.229801 -1.4662404 -0.9750604 0.12262741 0.04348893 -2.3479729 -0.12334778 -0.47181964 -0.62878096 0.3526073 -0.6462078 1.1564494 -0.011907494 -0.20691903 -1.8710489 1.7697351 -0.44288293 0.1414202 1.1135309 -2.3591409 -1.1891383 -2.0861735 -0.1559215 0.94063276 0.28352684 -1.2789356 1.2238536 -0.40906653 -1.3814056 0.22079523 -1.1203786 0.16817433 -2.5496922 0.7528171 0.05314334 0.51174545 -1.4887427 0.529022 -0.16592795 0.22050601 -1.2111737 -1.6346025 -0.617256 0.7022886 2.2096262 -0.82047105 -0.66746944 -0.34889823 -0.19358009 -0.4950166 -0.85689735 0.8160862 1.5660285 0.75836384 -0.63195115 -2.6378624 -0.7270405 -1.1942089 -1.2994885 -0.9367241 -0.55118066 -0.8702878 0.401857 1.1358297 -1.1542542 -0.2686236 -1.3025277 -0.7888633 0.9399594 0.7954347 1.185428 -0.4659425 0.7995043 0.7381308 0.26532465 -0.48339745 -0.31778982 -0.7419921 1.1309816 1.1172496 1.9773893 -0.30841738 -0.26459828 -0.23594198 -1.2094487 0.07237713 -1.1552874 1.4445306 2.2210965 -1.2803987 -1.898339 0.80097467 0.3657052 -0.6074956 -0.5246123 -1.872126 -1.5143205 0.6302745 -2.3600295 -1.8292311 -0.23787437 0.73263425 -0.8570044 0.108064294 0.006461938 -1.2118276 -2.0389402 2.8894305 -1.9924746 1.0933498
452 -2.2178936 -0.9167811 1.3724931 -0.95284784 -2.13466 -1.346003 0.30469376 1.3357972 0.77742106 -1.5579712 -1.3666698 -0.94733655 -0.10283115 -0.74302256 2.0539215 -1.5023695 1.6220516 0.5506162 -1.7110128 -0.8300006 1.6505455 2.449599 -1.3226925 -1.7906922 -0.62927604 0.58897424 -0.22999161 0.028142905 -0.41684362 0.9595494 1.7267452 0.7543567 -0.7351642 -1.7572554 -0.8805921 0.13657619 -0.6978193 -0.2900147 -0.42591906 -0.99410146 -0.4235811 0.86538255 -1.0978088 -1.19492 -1.3644187 0.03248817 -0.684392 0.22735244 -0.21322237 0.19728638 2.199131 1.4464829 -2.5714943 -0.36108354 -1.6969382 0.626463 -1.0917076 1.2218825 0.015144402 1.2656777 0.42718622 1.012619 1.7515464 -1.3367683 -0.094602555 3.478833 0.36877173 1.044221 -1.3025706 -2.0816185 0.97844523 0.24572758 -0.99978435 0.753349 -0.020473592 0.10244736 -0.65998113 -0.51392376 0.56172353 0.8392408 -0.6046496 -0.5037305 -0.5376456 -0.8777437 -1.0528544 -0.5710507 0.8450123 0.122136265 -0.108496234 0.98790574 0.47602484 -1.6114072 1.1227293 1.137722 -0.7606207 0.35329852 2.4588873 -0.13980775 -0.18056521 -0.42313337 -0.9212105 0.3344353 1.5382221 -0.20558189 -0.31830123 -0.52609706 0.50294673 -1.8125204 1.0558146 0.26389343 0.38116345 0.42521143 -0.07840118 -1.1844133 1.6337045 -0.5829444 1.2625405 -0.21441224 -1.2328717 -0.76063985 -1.2469594 -0.11147323 -1.8343843 1.9841343 1.0212381 1.4136088 0.09379178 0.17787242
705 0.8902564 -0.6747046 -2.7189207 1.1859628 -1.9073323 0.22741035 0.20725654 -0.80034864 0.6480371 0.5939841 0.45730022 1.2029825 -0.4086554 0.27840936 0.0919871 -0.5539321 1.3856852 -0.8202915 1.5368572 1.1786331 1.8643253 -1.7236575 -0.97633255 -1.6216325 -0.3619348 -2.6213963 1.2831634 0.8127877 0.91045946 -0.716142 0.7816219 -1.6309067 -0.56393987 -1.950381 2.7142177 1.5457852 1.430533 0.27266014 -0.5671129 -1.3876648 -2.1228762 -1.4341928 -1.3368093 -0.7281745 -1.179293 -2.219995 1.404475 -0.3713984 1.650897 -0.43384796 1.3054743 -0.34592545 0.7787002 -2.0805507 0.119943075 -1.5669875 -0.45045245 1.0110916 -2.8340302 -0.7705186 0.6440235 -0.44764185 0.6158443 -0.7034755 2.9962294 0.06356395 0.3187534 0.33179793 -0.66809607 -1.8168669 0.31929708 -0.7138427 0.4699592 -0.21162929 -0.3509968 -2.8271298 -1.2259804 -1.0926822 1.6187257 1.3070014 0.57661337 1.9473265 1.9760411 1.9383385 0.30946317 1.2124639 -1.9628658 0.5709712 0.90245324 0.3300198 1.9810846 1.2875836 -0.34886372 -0.030016365 -0.23750518 -1.0285195 -0.4424519 -1.5992001 -0.30256584 -2.286659 1.0031694 -0.47769898 -0.4185631 -0.06458192 1.2008042 1.1213874 -1.5988142 0.15962821 1.1527346 0.096546225 0.27812523 -1.6976924 1.7824223 0.51469797 0.09739099 2.3640187 -0.75081354 -0.018970165 -2.4806526 -0.6921223 0.3242718 0.86723536 0.95057046 -0.5478483 -1.7153994 -0.7179 -0.7182789 -1.3237655
757 -1.45209 -1.2967699 -1.9650464 0.88212085 -0.05254349 1.1757157 1.6507711 -0.28143522 -1.0599642 1.0327283 -0.92908525 0.41591284 -1.5091821 0.85558856 -0.14123084 1.2675269 0.99121326 -0.20512216 -0.8311691 -1.288146 -0.40933657 -0.043498356 0.4943358 -1.5228238 -0.49662066 -0.8669118 -0.80672795 -1.703121 1.4967073 -3.3435261 -0.43831214 -0.63662654 -0.25683674 -1.9196919 -1.3046298 0.14844286 -0.18439358 -1.9397857 -1.895268 0.7565002 1.214713 1.2082242 1.7187703 1.2402468 -0.21507023 -1.2351028 2.085506 0.25635558 1.3584746 -1.0121865 -1.8800087 -0.1025995 0.44721374 -0.9858203 0.12739143 2.9870474 -2.1439817 1.5720088 1.4761922 0.5019929 0.112124816 0.47390434 -0.2758471 0.102379 1.28385 0.042514514 1.2694273 -0.7793493 -0.2854095 -0.3897381 -1.7963592 -0.31414005 -0.6466959 0.4325731 -0.64643383 1.3553983 1.351247 1.3926728 -0.67144793 0.4555477 -0.27667063 -1.8641907 -0.46013927 0.122746 -0.7845282 1.0103209 -0.112146564 -0.8096454 0.53381795 0.017907068 0.27339002 -1.1581327 -1.7942824 1.587901 1.0661346 1.5324281 1.2678035 -1.2004895 0.2507393 0.7211789 -0.008760991 -0.01454664 -0.010911471 1.2472692 -1.3061407 2.0683963 -1.5691366 -1.7615196 -1.0068506 -0.5114361 0.9312896 0.842584 1.3605351 0.38516963 0.21894714 -0.49679026 -0.25981674 -0.7343257 2.3475943 1.4569087 -2.2479515 0.66996044 -0.11491657 0.45135012 1.3714595 0.8928821 0.17135291 1.3114353
736 3.063002 -0.71972257 -0.4745798 -1.0573251 -0.83012396 -1.5596136 -0.15453053 -0.22694014 0.8368359 0.034981437 -0.33248857 0.3361293 -1.2532642 -0.73917234 -1.0275362 0.89024025 3.6175985 1.0741783 -1.2568532 0.6801214 -0.38975552 -0.28054908 -0.9769714 0.18310595 0.35400006 -0.9514258 -0.26804382 -0.46113577 0.37676525 1.8271513 1.1347059 1.4494339 -2.8452103 -0.56543267 0.8206124 -0.55080926 1.1068429 -1.3709128 0.31837454 -1.791395 0.06705115 -0.56751484 0.083803214 1.2786654 -0.38564715 -0.8189297 -1.0797921 0.020628344 -0.31628463 0.26154706 2.1527145 -0.29562542 -1.4075388 2.7754679 0.8966681 -0.1204623 -1.7690426 1.7190771 0.712104 -1.5043437 1.3745157 -0.12453326 -0.44275096 0.6485761 -0.6518071 0.4737809 -1.4279708 1.031696 1.1456022 1.0870352 0.37063643 -1.6902045 0.3035711 -1.0176263 0.99213856 -0.66097665 0.6166393 1.4070776 -1.174384 0.15985079 -0.7778951 -0.70344245 1.1753336 0.17983495 0.93420464 -1.924843 -1.4193306 0.721545 0.07130919 1.2636476 0.91830003 2.6571898 -0.06578078 -1.6953313 1.923638 0.8546255 -2.9702277 -1.2906145 -0.62280244 -1.4504911 -0.21499209 -1.0465968 2.3096802 0.7222097 0.2649689 -1.9648279 0.3607255 0.723375 -0.8397927 -1.5127614 1.0553778 -2.609793 -1.0381135 -0.13979895 -1.9948233 -0.7428143 -0.02440941 1.4349872 0.9872424 -1.154904 0.3500027 -0.39831665 2.669658 -0.496873 -2.2560241 -0.7565998 -1.7883067 -0.7132045
868 2.0425494 -2.9471927 -1.1965711 -0.6465769 1.5863127 -1.1362982 3.389216 0.692142 0.49269116 0.9161602 0.12585123 0.33499497 -1.556467 0.36894968 0.56798315 0.8304692 1.6041777 0.54004115 -0.14345048 1.7403405 -1.9711542 0.30275688 -0.65273833 0.28892672 -1.4457145 3.1787417 0.945508 -0.37095398 0.4201772 0.7898 0.4521541 -0.54435056 -0.8133246 -0.7245345 -0.994683 1.0397195 1.1206198 -0.101563916 1.0472938 -2.006962 -0.9219335 0.054393247 0.70970374 -0.6276135 -2.9410148 1.2093105 2.8482697 -1.6745776 1.4016714 0.5943494 0.698697 -1.4334111 -0.66089594 0.9220884 -2.0071387 -1.2996509 -0.070975706 0.82653534 -1.092457 2.5493264 1.179047 0.70816594 1.3341851 -1.3143811 -1.1736562 1.1448228 -0.23289026 -0.237825 -1.1591152 -0.68721324 0.2041406 -0.0062111905 0.8938826 -2.2324266 -0.8738378 2.110877 1.889901 0.38604438 -1.8134711 -0.65715927 0.15091562 -1.3700867 -2.1826937 0.68626803 0.41220725 0.99129707 0.5598279 0.6008096 -1.7613329 -2.0524905 0.63747853 -0.18033986 -1.1212821 -1.0719697 -0.73579293 0.5825848 -2.674994 -0.7421624 -0.51898867 -0.69343275 -0.069026925 1.0194547 2.065593 0.7626846 0.24073689 -0.40283537 0.505331 0.7744585 0.8140966 0.59158474 0.8578438 -2.343389 -1.0392513 2.0187933 -0.32342166 -1.1595525 -2.121567 0.46026582 0.17554687 -1.2522482 -2.2868552 0.038880322 1.1352158 -0.05854179 -0.051296905 -0.30287778 -0.54960656 0.7077833
422 0.6975386 -0.3127319 0.30029416 0.8819299 -1.2102313 1.5900909 0.88762367 0.10550422 0.56262517 1.5662352 1.3737247 0.39381412 1.7269396 -1.3110552 1.9477657 0.6100573 1.1783969 0.07749963 1.4799819 -0.80090547 -0.60831934 0.8876419 -1.3600726 1.9773309 -0.72087854 -1.0663368 0.48493418 -3.3428147 0.968422 1.7547221 0.7114493 -1.2341849 0.72489053 2.6489348 -0.70483196 -0.86876 0.7772458 0.53284556 -0.4643333 1.4224664 1.0610204 -0.3465257 0.019076051 -0.40434802 -0.9177308 1.7863551 -2.0432136 1.7738235 0.22595753 1.1395563 0.92048496 -0.25540254 0.25607497 -2.0990782 -0.29519922 -1.7128645 0.20775694 0.8536481 1.4292138 2.044485 -0.9997491 -0.15217535 0.83427864 0.977172 -2.5038364 -1.3678997 -0.108268045 -0.4827861 -0.08459122 -0.66390294 -1.8052783 1.1834323 0.67838806 -0.8408309 -0.3825971 0.62298375 -0.38935897 -0.5749736 0.335724 -1.6125325 0.2103059 -1.0325384 -1.9866529 2.3285542 -1.2545838 -0.4364957 1.0181056 -1.926027 0.46290416 0.7588854 -1.1046182 -0.4430037 -0.2762977 -1.4265575 1.0854919 -0.13438287 2.1746204 0.2227811 -0.00032023154 -0.03659777 0.7893407 -1.8972869 -1.6872915 1.0871081 0.24077637 -0.12642743 -1.2311491 -1.6371825 -0.86486006 -1.8265313 -0.87364167 -0.21360798 -0.5747599 -0.6512793 1.1358103 2.0228758 0.86417866 -0.05756071 0.61821616 0.6268281 0.42360002 1.3737423 -0.15706454 -0.12594669 -0.40576226 -0.9431409 -1.2612257 -1.1131374
867 -1.4068896 1.4340342 2.2431326 -0.3551956 2.6676855 0.4070521 -1.4359801 0.89272696 -1.7171122 1.8051579 -0.5281306 -0.29729405 0.41400883 0.17775428 1.5595272 -1.3593054 -2.3042858 0.18441443 -1.7429785 -1.358796 -1.5114611 -0.5184984 -0.90489596 -0.67020357 -0.7111872 1.6354407 -1.0811613 -0.1302488 -1.0057756 1.0618415 -1.6020511 -1.0216371 -0.06385024 -0.054861132 0.1828088 0.30462316 2.5500898 0.929675 0.28787965 2.966821 1.1771355 -0.83243954 0.62160045 -0.29619768 -0.99770516 0.055190265 -1.263872 -0.36610743 -0.1361124 0.40479806 -0.6258202 -2.336167 -1.4092925 0.3994666 -0.27307516 -0.49368954 2.8089242 -0.610679 0.24445522 1.2449614 -0.042358138 0.74589455 0.42549407 -1.7861574 0.07458009 0.5786122 -0.9802178 -0.5070642 -1.5041611 0.020698858 1.1757135 1.2305675 1.5130019 -2.5211294 -0.66943526 0.07915987 -1.3701936 0.64552236 -0.74816155 0.4033031 -1.5581541 0.41498485 -0.8563888 1.9670253 -0.7230068 2.8335981 2.9544394 0.462264 1.3508103 0.054503147 0.19591606 -0.26248088 1.2110772 -0.41660547 -1.6665633 0.1699106 -0.30989242 1.4621323 0.36604 0.33330196 -0.9899899 -0.5864494 -0.761983 0.14158054 -0.34677625 -1.9767303 0.34842125 0.068797484 0.66091377 1.4225513 -1.9189991 -0.65737474 -1.0364887 -1.754643 -0.021942385 1.9172355 -0.6713937 1.1308409 -0.13622388 0.60356164 -1.3790566 -0.31788632 0.06777491 1.2685167 -0.19889669 -0.79549116 0.13602057 1.8736751
100 1.5268453 -1.7188547 0.41650775 -1.0897212 0.34119087 -0.17111664 3.48021 0.2753879 1.0212277 -1.906088 -1.0957366 -1.4568073 -0.83023185 -0.40014958 0.88401157 -1.3591788 -1.2789916 -1.0262972 0.596416 0.52123255 -0.7527461 -0.4458268 -1.3021886 -0.74349254 1.1047459 3.0336292 -0.6844207 -0.97503996 -0.48790038 -0.23287952 2.0520937 -1.1733388 0.9260153 -0.9756263 -3.421973 1.6571666 1.7691959 1.9545898 -1.2336305 -0.85096234 -0.659874 -0.5340101 -0.40986663 0.1436503 0.7332691 0.097378865 1.368371 -1.875018 0.5739338 1.163327 -0.38420546 0.87972426 1.3127495 -0.1661615 -1.8362968 -0.4073869 -0.17864913 -0.100616544 -0.8042611 0.38497514 -0.035496764 0.2683641 1.7205781 -0.526135 1.0915802 -0.06576321 1.5380011 -1.8382831 -1.3412105 -1.7574062 -1.6168877 0.16625462 1.311972 -0.48283872 0.47478646 1.5348228 0.72716045 -2.4115217 -1.502614 -1.378997 1.0894945 0.021383852 -2.4659197 -1.8940216 1.33893 0.12816826 1.9270072 -0.8901848 -1.4131906 -1.5822635 -1.143429 0.33326298 -1.7227007 1.1880312 0.32934794 -0.90323085 -0.28444386 -1.5651695 0.027362827 -0.6965469 -0.55509686 1.6998601 0.20606738 -1.1446713 0.54050463 0.23933914 1.7893599 1.0355978 -0.3490539 -1.2963163 -0.23917657 -1.2645072 -1.3531636 0.73958886 0.3399847 -1.5888433 0.81844324 -0.6284208 0.5173455 -1.5010079 -0.9131803 -0.5606619 -0.14035924 2.3321056 0.5971658 -0.4826654 2.6536555 0.60758317
245 -0.20972432 -0.45981506 1.159469 0.43801302 0.7484855 0.31956857 0.10265972 0.67287946 0.77243924 -1.7731768 0.45882466 -1.899169 -0.038213503 -1.0576458 0.013190593 0.6287384 -0.70111424 -1.4934634 0.22426274 -0.7419967 0.88639534 0.4854371 -0.26071483 0.03790313 -0.060702384 -0.8799509 1.2881207 0.21275344 0.54523814 -1.540573 -1.8114727 -1.2262096 0.057753377 -1.0202335 2.3930204 0.93332666 1.1925079 0.666817 -1.5861623 -2.2304115 -0.32362473 0.51337695 -2.2237346 0.87880546 -0.38900262 -0.1174621 1.633227 0.6738243 1.1502802 -0.18896149 -1.0085479 -2.0789487 -0.3851689 -1.9628792 -1.1511116 -1.6992053 0.45833015 -1.2183548 -1.9326507 0.3759386 -0.5771366 0.20954086 0.6526701 -0.38251257 1.0268294 0.25110516 -0.85757613 0.584741 -1.935776 0.2491354 2.108738 -0.5969641 -1.3107067 -3.293403 1.608568 -1.7862052 -0.7193569 -1.299223 0.55618334 -0.8299672 1.3245137 1.014829 -1.1933787 2.094232 0.94900477 0.18931654 -0.00858358 0.5703695 0.6561569 0.30221888 -1.0413159 0.8243258 1.3210622 -0.5214224 0.39925316 -1.2961298 0.3458692 0.29805657 -2.618213 1.6854179 -0.48133633 0.9607428 -2.1617527 -0.62756324 0.33691505 -0.27512947 -0.2353727 0.3976384 0.44149414 2.9550579 -0.88324887 1.4768155 0.62403375 0.0016652273 1.5534711 0.9779654 0.3434236 -0.2792423 -1.289362 -0.7719038 -0.35701647 -3.2012262 -0.32465172 -0.9155022 -3.3887033 -0.5816436 -0.1712221 1.8505263
791 -2.6944487 0.2270612 0.036638193 -2.6193535 -1.614729 -1.3620868 -2.2967627 0.765232 -0.455966 0.7782116 -1.0681882 -1.7304838 0.24331294 -0.76745766 1.0260676 0.2619446 -0.42455465 0.86287516 -0.78477675 0.21684775 1.0855498 -0.2408816 0.36500078 -1.0500478 1.9177567 -0.38148466 0.8104013 -0.58861583 0.30058467 1.3650886 2.7794974 1.1331837 0.33074182 -0.07315337 -0.7481958 1.0586947 0.35916093 0.10564178 -0.2558488 1.0085293 1.3923811 0.16392392 1.4022799 1.0360355 -1.201725 -0.9261918 -1.4052904 -0.35727417 -1.9847636 0.023640316 0.47968242 -0.60237986 -0.9128062 -0.24224274 -1.7724506 -0.6787785 -2.2942615 2.6441536 0.9677955 0.706314 1.1583371 0.53340065 0.21064104 -0.6822791 0.16600752 1.468821 -1.9388454 -0.9793873 -1.3728485 -0.996949 -0.14508617 -0.06623362 -0.66740566 0.21919072 0.113746844 -0.6982153 -0.7376218 -0.51888627 -0.42468858 -1.1078053 1.31201 -2.4921057 -1.4330148 -0.5779754 -1.0890131 -0.7993229 -1.0262122 0.307704 -1.2433281 -1.1222231 -2.0627837 1.1200967 0.9559743 1.0525827 1.3852162 2.369251 2.7694793 -1.9356862 0.7646912 -0.21796769 0.62795746 -0.1318703 -0.30780974 1.1022239 -0.34770572 1.0495641 -2.2169375 -0.92999506 1.5919162 -0.07942525 0.5115663 2.6485825 -1.8159795 -1.3324598 1.676655 1.000151 0.22316541 -1.2813245 -1.2626014 -0.33809716 0.15455884 -0.4503814 -0.97172236 1.457633 0.9348637 1.5799991 -0.54332006 0.63803506
31 0.7309809 -1.1653551 -0.94353324 -0.6542059 1.8346846 -0.9788271 2.4842925 1.1813103 0.6725927 1.1156454 1.5492624 0.1624559 0.46280044 -0.24139972 0.5139522 1.3713654 0.5819577 0.062070712 0.82098013 1.2576923 -0.8863297 -0.47781658 -2.3628376 0.8465917 -0.45632172 -0.4373963 -0.07283266 -0.36410192 0.5250716 1.4476177 -1.6943334 1.1197449 -0.29738438 -0.25090083 1.621651 2.3953087 -0.0020344849 -0.957739 0.36515194 -2.8065422 -0.7264334 0.4794444 -1.0864005 1.01863 -1.9325703 1.2860805 0.9596371 -0.92451334 1.0162807 2.1457438 -0.11000941 -1.3719071 1.1071341 -1.038748 -0.67208797 -2.8728046 0.020621534 -0.27396518 -1.2361677 1.3574861 -0.09764599 0.24091887 0.7764033 -1.0888145 -1.3387104 1.2613021 -0.2467235 -0.53253347 -1.2716477 -0.2746674 1.6908195 -0.60685 -0.33411068 -1.8948256 -0.47499776 0.4413921 1.5496615 1.0004762 0.25468487 -0.06413247 1.0881112 0.2560484 -2.0155923 0.5711901 0.72858685 -1.6410791 0.46947083 0.970762 -1.2953241 -0.9546621 0.2928502 -1.4116714 0.67572266 -1.4847462 -0.104462765 0.5356769 -1.0208019 0.4326629 -0.4881089 1.8528495 -1.1510106 -0.096510775 0.96557593 0.18483819 1.2712469 1.335719 -0.027926784 -0.28231117 1.0873758 2.1757393 -0.45324498 -0.09575747 0.16576195 1.2644131 1.2130297 0.89647883 -1.1981225 0.33943567 -0.51328516 -0.18293233 1.1393778 -1.5546403 -0.25643614 -0.3418946 -2.5402596 -1.6152211 -0.7679668 0.8043879
8 -1.9045407 0.35961458 1.5187801 0.3083808 1.081385 0.863846 -0.550261 -1.914759 -0.160473 -0.24643312 -2.0036144 -0.15611728 1.5776671 1.335366 -0.4703942 1.3809527 -0.022969665 1.2551584 -0.35746473 0.5659447 0.9119631 -1.2041475 0.36714718 1.4168202 -1.1189709 -2.3458688 -0.2709396 -0.70443624 -0.73652315 -1.7964853 -1.039355 1.3894298 1.6806494 -1.2875869 0.28271222 -0.36239564 0.078580745 -0.44453523 -0.193708 1.0562909 1.263039 0.5398151 1.3758011 1.3217256 2.3160274 0.6844774 -1.0113525 -0.44096792 2.4510992 -0.75337434 -1.5386543 -0.53901225 0.11840432 0.284093 1.4295604 2.7935927 -0.66920227 -0.54496497 1.5005121 -0.19747993 -0.851064 0.081820264 0.46245992 -0.7541097 1.1832865 -1.2406658 0.020885257 1.2674627 -0.032763954 -0.26706058 0.53822106 0.52249396 -0.4158962 0.09752946 0.5883742 0.7880836 -1.1456926 0.17945239 0.9085552 2.370198 -1.9940958 -1.0274112 -0.16467434 2.134408 -1.1761258 1.4516366 0.5692457 -1.2076186 1.5101489 -0.02550215 0.6171572 -0.6100804 0.42082906 0.6674624 0.5640624 -0.40876982 0.8988092 -0.5855066 -0.16333945 -0.9383717 1.183994 0.5393574 -1.5570284 -0.62359047 -1.4976579 -0.32345948 0.11678665 -0.12266154 -2.247218 -1.2281448 0.015208493 -2.2131155 2.0124803 -0.0018020775 0.39057493 -0.61003035 0.4740349 -0.44240165 1.5955778 0.78713787 0.49750778 0.34549567 -0.039440267 1.6450589 -1.0534278 0.15044858 -1.7801942 -0.15333003
362 -1.4475977 1.7974712 1.1786174 -0.04792869 2.7044222 -0.11751247 -1.1573166 0.6634557 -1.8613203 1.8060333 -0.24406087 -0.16644816 -0.34410936 0.9098982 0.47342116 0.5238792 -1.8952496 -0.14171171 -0.1824476 -0.0034761946 -0.77093506 -0.9691055 -1.0372488 0.69635344 -2.2778964 0.0029716254 -0.13779601 -0.6207411 -1.2797797 0.67831576 -3.0922198 -0.6172814 0.82519495 0.7735625 -0.39169165 1.3081144 1.9699682 0.4847675 -1.1281916 2.3421004 0.9991589 1.0677513 0.14675944 1.177903 0.9620287 0.40574571 0.41202658 -1.2793602 -0.98068154 2.2080927 -1.3499336 0.12592863 0.46459347 0.49687424 -0.08437366 -0.36516187 1.7184534 1.5456672 0.3858241 -0.73267704 -0.73766464 -0.1329766 -0.35951588 -0.8699631 0.6750309 0.8025483 -1.8585703 -1.6668988 -1.3196799 -0.8960811 -0.9886289 0.6338764 -0.07052721 -0.18957202 -1.1999269 0.8304041 -0.81772554 0.31182313 0.40194777 3.4938285 -0.8529914 1.3824095 -0.22775866 1.5067415 1.5537891 0.12540105 1.9098518 1.0822084 -0.46003455 1.253989 0.06384383 2.2376125 0.9173072 -2.2731164 -0.8736108 0.90275604 -1.4593922 0.93615174 1.6724768 -0.074437805 -0.82332563 -1.4041644 -0.37575683 0.32270956 0.39849126 0.8656831 1.3628856 -0.5210547 -0.12600806 -0.5711102 -0.6919558 -1.7686274 1.0976522 -0.41005263 -1.7543494 1.45679 -1.964058 1.3991916 1.0432093 1.9970505 1.1164379 0.42791417 -0.24933536 2.1407568 -0.2025034 -1.3846058 0.10655524 1.407978
637 -0.40346128 -0.82419115 2.1142323 -0.30516657 -0.080469504 0.6717276 -0.5647342 1.2776943 -0.020099152 -1.3949519 -1.1616874 -0.25577834 0.7026724 -0.37120274 -0.98022234 -0.24201865 1.6033379 -1.2143257 0.88675106 0.024174022 0.5557873 -0.17011897 -2.2999907 -0.107890345 1.3948382 0.5850169 -0.4788922 0.25132924 1.1748552 -2.6317284 -0.9269121 -0.07691536 0.5837648 -1.6979457 1.2409381 0.63422066 0.40072337 0.8616242 -0.82649344 -0.03592165 -0.8007206 0.5156722 -2.5826068 0.5292571 1.4826524 0.14803252 0.9680299 -0.25110343 1.0046877 1.7891438 0.7122235 -1.2685312 0.28124464 -0.41201708 -0.47734818 -0.5524105 -0.19091734 -1.8035567 0.69461924 1.9363956 -0.40567225 -0.23592052 1.9644687 -0.07867187 -0.47232652 -0.17401825 -1.4145383 -0.67521423 -0.61921895 1.0382979 1.0974077 -0.9916617 -1.7417463 -1.5881749 -0.14359844 -2.2367554 -0.09433586 0.17170186 -0.8377268 -0.22230361 0.5127691 -0.6416563 -0.62288207 1.7109951 1.0071286 -0.7587963 1.0893342 0.44957903 0.45703888 0.8268345 -2.8854148 -0.587622 1.1147254 0.33064464 0.4000418 0.38904583 0.36660895 1.8914081 -1.7341543 0.71331245 0.9423042 0.5747804 0.86096907 -1.0513128 -0.23407848 -0.45361787 0.1868089 0.40149042 -0.9387107 1.9965326 -0.09552061 1.9976792 0.1434782 -0.45615947 0.89869404 1.6430614 2.2109003 -1.1663017 -0.38737163 0.053555284 0.9379352 -2.554176 -0.42792392 -1.518034 -0.11167303 -0.92199284 -0.6685025 2.9613206
154 1.7558647 -0.23238005 -1.7187135 0.9460721 -1.9328734 -1.7650753 0.9090883 -0.9744819 1.9804423 -0.60039854 -0.2988189 2.2210171 -1.0452725 0.55692416 -0.33825636 -0.114971675 -0.0029951313 1.4132947 -1.1142545 1.7529585 -0.6022814 -0.8709766 -0.5648345 -2.6059787 -0.60054284 -0.73040164 0.343499 0.9357268 2.1890488 0.40008512 0.058901653 -0.47038215 -0.9500611 -1.4613973 1.5001439 -0.058278628 0.8130454 -1.0012094 -0.01149622 -0.8354656 -1.9348868 -1.374454 0.1983086 -0.8269894 -1.1410803 -0.65104246 1.2456214 1.1281785 0.72815937 -0.942105 2.7050169 -0.9870784 0.2794403 -2.533033 -0.81741685 -2.0449984 0.15346694 0.3915102 -0.40236616 0.010713936 3.2625713 1.3382584 -0.88488066 0.12974137 -0.33884066 1.3865936 0.93161035 1.8255373 -0.38353688 0.0579188 1.3564374 -0.7546948 -1.73446 -1.2273784 -1.0317343 -1.5140072 -1.1735215 0.5322653 -0.44742262 0.22779073 0.24895138 0.9456847 1.5850894 1.0123378 0.92258906 -0.19490792 -0.27727726 0.9898807 2.18819 1.4144796 1.6605316 -0.41986018 0.48587337 -0.0029331073 -0.51071614 0.4988284 -0.6952653 -3.3017101 -1.0102899 0.9372859 -0.39416036 -1.2568549 1.8899757 -1.0532649 -0.88447934 0.91205597 -1.0075434 0.31971127 -0.2995857 -0.06433196 2.0149338 -1.3703839 0.7048585 -0.23424214 -1.3195292 0.9950954 -0.15401328 -0.6627337 0.3105915 -2.5860672 -0.18141085 -1.3506749 1.8043504 -0.3009896 -2.083367 -1.2031647 -0.41266292 -0.351463
878 0.5887613 0.38452268 1.04623 0.26700068 -0.9917982 -0.13461342 -3.7901103 -1.7874795 0.46114063 -0.26319763 -0.6047842 1.3614844 0.67363256 -1.5497912 0.64020354 -1.4456346 -1.3561935 -2.153227 -1.0302852 -0.04452957 -0.5582213 -0.660838 0.008774054 1.5020338 2.1159334 -0.0958039 -0.6771409 -0.87347054 0.65819776 0.60726744 0.30550864 -0.648991 -1.662377 1.0376353 -0.32376575 -1.3848416 1.4773718 -0.69060516 0.8258611 -0.5756863 -0.3783595 0.4636539 -0.052837357 -0.072410874 1.2723587 -0.46449566 -0.17202418 -1.916226 0.051636036 -2.451186 -0.65035695 1.1649232 -0.9973491 1.4447423 -1.146157 0.6472985 0.10861512 -1.5540245 1.8754219 0.55365884 -0.186352 1.5092019 -0.7463687 -0.32039896 1.2049795 -1.3524227 -0.18076155 0.3474735 -0.30120313 -0.51822454 3.4456775 -1.6405007 -0.014149683 1.628121 -0.043290798 -1.0969163 -0.46898904 1.1811404 -1.0567777 0.14212807 0.24650201 0.40185082 0.617278 -0.78072256 0.8816956 2.0287158 -1.8657701 -0.32051927 1.2854363 -0.52132475 0.93153226 -0.8880159 -0.92281127 -0.35012665 -1.3547933 0.68662953 -0.6969228 2.7215214 0.50003093 -0.48031172 0.6745792 0.88272464 0.45178208 -2.7207325 0.86609477 -2.186409 0.46579456 -0.49910522 -0.34459472 0.19801335 -0.9360868 0.3306489 1.977797 -0.56217396 -0.94331217 1.1755377 1.6487678 1.046232 0.48635173 -0.26674443 -1.1041943 0.99666977 0.71704566 0.20189342 -0.09504039 -0.0391753 -0.485512 0.056584615
850 1.1934037 0.69618595 -0.3915511 1.2784561 -0.22658399 -1.0071764 0.734985 -0.16961713 -0.3781357 -1.4289157 0.12685159 0.09871458 -0.067513965 -1.3105049 0.09096689 -0.78391844 0.220244 0.15380327 0.47632498 -0.75883305 -1.1811755 0.29905012 0.013695577 0.030469233 0.36477825 1.6239818 0.13557614 -1.0717145 -1.1639987 -1.1824476 2.3259447 0.07988544 -0.47225523 0.54441935 -0.58069026 0.77737606 0.47398195 1.6372906 -0.66120577 0.09545642 -0.45562756 -0.14090732 2.105698 -0.5031248 0.9035652 0.4917043 0.62221473 -0.19315848 0.554848 1.2343037 -1.5696352 0.44429752 1.8461293 -1.8415586 -1.0626409 0.09619807 -0.117073745 -0.9623143 -0.66652775 0.213138 2.4386053 -0.26318723 -1.133417 1.0512782 -0.8029266 0.5694408 0.56547534 -0.43120593 -0.4212093 -1.9645406 -2.6157408 -1.1619164 0.69876915 0.62478083 -0.56660485 0.48589692 -0.9397023 -1.2578405 -1.3597778 -0.36721385 0.33869871 -0.37336603 -0.014023232 -2.0784714 0.87870055 -1.1425265 1.2693524 0.90293974 -0.5238631 0.3882658 -2.4926817 -0.70425045 -1.765721 -0.83208114 1.3118907 -0.5309171 0.4442946 -3.4399118 0.7082171 -0.5460065 -0.6971451 -0.10144571 0.22723423 -2.6280193 -0.11017955 -0.48391625 -0.50033814 -0.72759724 -0.48404124 -0.8027434 0.20768087 -1.7272952 -0.41061592 0.86316216 -0.018789802 -1.4321591 2.0283015 0.2535584 0.40854013 -1.636508 -0.32004878 -1.2926089 1.006054 0.61076075 -1.2804629 -0.87992716 1.5208431 -0.5342306
874 0.77113384 -1.0627489 1.1353999 -1.717407 0.05443987 -1.802909 0.363169 -1.1316965 -0.76701117 -0.3985193 -1.2898257 -2.2224784 -1.4794836 -3.1008213 0.30536884 -0.45408517 2.1318958 1.7934744 0.7506785 -0.8182922 1.7924826 0.8712798 1.4730692 0.37522346 1.423287 1.4438398 -0.11565558 1.1819069 -0.36110485 1.5375077 1.5181123 0.96680135 1.3057033 -0.9680025 -1.389891 -0.15106022 -1.1339169 0.44865885 0.7531438 -0.23453574 -1.4047108 -2.1332006 -0.91090816 1.505536 -1.580671 -1.3179805 0.99658334 0.6349201 -1.6942083 -1.9253924 0.40379745 -3.0354445 -0.10238085 -0.13104565 -0.24487182 -1.6138067 -0.59824836 2.3184566 -0.87399995 -0.7973262 1.434936 0.54498595 1.7215936 -0.33626053 1.4734541 1.6266234 -1.7807759 -1.8136858 -0.66746134 -1.780298 -1.846409 -1.9069598 -0.01630083 -1.0797402 1.1176212 -0.39247757 -0.9898757 -1.2937896 -0.6497206 -1.6429527 -0.5495555 0.6118954 0.7529125 -0.66554725 -1.1012198 -1.267844 0.7259312 0.43775186 -1.0712522 0.34038702 -1.8754809 2.796408 -0.37260407 -1.2062712 2.1558661 2.1727982 -0.6189256 -0.7559177 1.4144119 -2.4784498 0.84237784 0.72611475 0.15119307 -1.1186794 -0.049733203 -1.1371223 -0.59410554 0.75547606 1.2307351 0.6148952 2.495168 -0.6338336 -1.4374039 0.56859463 -1.3915794 1.9720339 0.21499765 -0.7168411 0.84978735 0.7089429 -0.87032956 -0.145215 1.3975679 -0.039997283 1.140995 0.8101042 0.038410753 -0.4793449
95 0.49483392 1.4842011 1.2373588 -0.16460276 -0.46008483 2.079704 2.3748174 1.6085979 1.3436555 -0.8684708 1.7396231 1.0697978 -0.08083361 0.2379556 1.4386562 1.4893228 0.94856733 0.65755546 1.4783962 -0.028671902 -0.44818902 -1.5832167 0.48185638 -0.77965003 1.0552856 -0.18183827 -0.35858706 0.82570344 0.16603887 -1.1204373 -2.3590956 -0.35576817 1.1357363 2.954992 0.51658434 -0.7639027 -0.5304001 0.47508222 -0.41099447 -0.1212517 1.4996555 -0.95218986 -1.1829181 -1.1323475 1.0333259 0.56278765 0.4542282 -1.2991266 1.1479946 0.5297697 -0.3834507 -0.3626861 0.031735998 2.440721 1.6193662 0.41483298 -0.4253806 1.5224609 0.22039373 -1.0544136 2.3328552 1.2146986 -0.9456724 -1.2085876 -1.0149431 -0.40588838 -1.5443599 -0.36662108 -0.9823601 0.7584579 1.6140907 -0.5778322 -0.15467131 -0.92666525 -2.249819 -0.9046247 1.0927887 1.6315836 0.11011989 1.2614696 1.3278011 0.19818549 -1.2133726 -1.0413256 0.83701605 0.793248 -0.3970644 1.9410369 -1.1629316 0.6538774 1.2158775 -1.6129706 1.0873858 0.0100783575 -0.3375958 1.0902077 -0.110032976 -0.80652064 -0.28376204 0.96976054 -1.3488207 -0.47505912 1.4173343 1.674497 -1.4889864 -0.32699382 -0.3560149 0.46437058 -1.824538 1.8228322 -1.4075589 -1.7656693 0.15582676 -1.4903078 -1.3219317 0.9823915 -0.27169487 0.011779307 0.5748688 0.80937546 -0.098303705 -0.21890925 -0.05546851 -1.606593 -0.06034874 -2.6416507 1.3249574 1.2712895
434 -1.480293 1.5265336 0.66076016 -0.5440649 -1.0495334 2.2088876 0.3768698 0.5944679 0.9862964 -0.40449977 1.1372731 -0.08019235 0.21539897 -0.60358346 0.34650552 -0.38418704 -0.86742043 -0.5708444 0.7326629 -0.5831828 -0.17203407 -1.7141272 -0.56920505 -0.24144015 2.1066 0.40824357 -1.5977463 1.120367 -0.7416883 -1.4747152 -0.07487026 -0.5785757 1.7161094 1.7981123 -1.0992036 -1.2479696 -0.86692125 0.37981036 -0.09861554 0.16802372 1.3013355 -0.121993534 -0.28928542 -1.5356339 2.7623372 -0.77129716 -0.40962955 -2.1653042 0.26506063 0.51625043 -1.8867188 1.0380713 0.43887642 3.0277002 -0.21217643 1.7434117 -0.75210476 -0.72939074 0.730765 -1.2723566 0.82442003 0.08436268 0.21608566 0.02468831 -0.7122736 0.2592099 -2.3561919 0.17189811 -0.016772375 0.78087425 1.5110514 0.9059116 -0.9457226 0.024025334 -1.641314 -1.8359914 -1.2337092 0.6853001 -0.77581406 1.7708212 2.1346228 0.46715787 -0.18305457 -1.3579613 0.44727036 -0.32962492 -0.8150801 1.5576578 -0.42468047 0.8685488 0.3596201 0.58291453 0.8093134 0.16389221 0.11844107 1.2793441 -0.25991124 -0.2633273 2.4580197 -0.39004603 -0.39912683 1.1776469 -1.0108709 0.53693646 -0.066818215 1.6693583 0.3238665 -0.5748786 -1.8642256 2.461469 -1.0488769 -1.2989318 0.79477227 0.2255206 -1.3531563 0.6181248 0.5758829 0.6083265 0.6536023 0.46797633 -0.11814236 0.28881252 0.1393808 -0.479598 -0.8491295 -0.17322208 1.2071662 0.83608973
106 -0.32574195 -1.5918784 -1.8722925 0.9788314 0.22083367 2.137604 0.38318926 -1.0881137 0.781058 1.7174752 1.9800653 1.073153 -0.13256447 0.39413702 0.7400495 0.28265718 -0.59635764 -1.1645541 0.44471008 0.37973952 0.95010126 -1.4740722 -1.8092985 -0.94949234 0.22056882 -0.5187004 -1.7592361 -0.9351877 2.4904315 1.1226306 -1.1624919 -0.6639611 -0.41262195 -1.1072086 -0.5211088 1.0118266 -0.895518 -0.67564696 -0.72718865 -0.53080714 0.28127035 0.47329757 -0.7888671 2.1299107 1.5240283 -1.0005611 0.33719042 -1.1969525 0.64127344 -0.28771415 -0.47284192 0.081983365 1.3526368 0.22937424 -1.2504743 0.58946526 -1.7065562 -0.43419105 -0.7570267 -1.00017 -0.16776684 0.68898845 2.5869977 -1.6068608 0.14702378 1.693013 0.111925825 -2.9095297 -1.2627187 0.16703391 -0.13275445 0.36631498 0.8348517 -0.50230527 0.59039116 -0.6320181 -0.805078 -0.4966676 2.0594904 1.354823 1.4232001 0.6838939 -1.2356707 -0.9502881 -0.7811562 0.78678876 -1.3001988 0.324758 -0.92223215 0.233573 2.0620227 -0.71533024 -0.044158183 0.3818027 -0.07353118 0.9014475 0.81949896 0.33680388 0.59968406 -0.2491423 1.7983165 0.42280617 0.44778225 0.18941388 1.2410463 2.1656365 -0.91003525 -1.3777608 -0.5403155 1.6158317 -1.8754002 0.8512452 0.52002573 0.8124963 0.537848 1.6092362 -0.88791203 -0.38550052 -1.0082042 -0.25365222 0.79253316 -0.19741035 -0.76181275 -0.20465063 -2.1159291 -1.0512114 0.45433533 0.15194757
560 -2.915944 0.99230134 0.6070177 1.1302841 -1.4516613 -2.2488604 -1.9183643 -0.24036805 0.71731955 -2.1351938 0.032389812 -1.6304796 -0.32905132 -1.0727463 0.94735354 -0.13215503 -2.8136563 -0.85314006 -1.431207 -0.37726882 0.09804576 0.4030432 0.5575294 -1.6841068 -0.44703776 -0.7689574 0.008308223 0.6819727 -0.26906875 1.5450875 -0.39994797 0.6682487 -0.7803655 0.99170715 0.6469093 0.035553034 2.3640778 0.47529554 -0.18563722 -2.1554303 0.4267 0.04448631 -0.33179143 0.32638684 1.340473 -1.375833 -0.042812794 0.017434325 -0.4405912 -1.7454325 -1.2433345 0.06618334 0.8055917 -0.3970105 -1.2766519 0.03455631 -0.6429063 -2.5273366 -0.4629509 -0.6330387 -0.07855719 0.037691858 -0.021621112 0.57702386 0.7387057 -0.56084025 -1.4411199 -0.1938702 -0.4959403 0.6728385 1.1066265 -0.4906127 -1.1088828 -0.68689966 0.8944442 -1.5362324 -1.748204 -1.3208528 -0.49030155 -0.12527089 0.808326 -0.6894959 -1.5704004 0.91012263 -0.19011126 0.5660786 0.38361502 0.28815386 -0.49209103 -0.3346089 -0.81376195 -0.9172809 2.9090102 0.7458585 -0.9565034 -1.5072063 0.3162025 0.6344634 -2.003195 0.68650734 0.56751984 0.63453555 -1.0638896 0.8238081 -0.51817137 0.69491917 -0.26481456 0.33014637 -1.3029956 1.773589 -0.60562396 2.2160969 1.053429 -1.0862503 0.98467666 -1.7680315 -1.1778203 -0.39191228 -1.5053095 -1.3860571 -0.13984574 -0.46689507 -0.3316974 0.5437075 -1.5425795 0.22929755 -1.8775927 -0.66663474
448 -1.5811795 -0.08323927 -1.8077259 0.56934106 2.8925912 -0.03776195 -0.6625324 1.2328677 -0.9737969 1.5488218 -0.1445561 -0.3419308 -0.24723332 0.49921343 -0.71837324 0.88283503 -1.044219 -0.8617356 -1.420439 0.6855731 -0.30321038 -1.269212 -1.5177321 1.1456275 0.70959777 0.25542003 0.80206025 -1.2365406 0.55967534 0.28658193 -2.1510258 2.1623664 1.5244023 0.50753814 -1.199654 2.54936 1.0362163 0.6479994 1.5117481 0.43658426 0.1851114 1.6221324 0.77186924 0.5028081 -0.38108245 0.0021353357 0.25536618 -1.9729402 -0.99144804 2.9207194 -2.3420343 -0.21863894 1.1559978 -0.33808643 0.744226 -1.1842701 0.52294296 1.4868188 -0.43423006 1.1355823 0.15491706 -0.8066707 0.8623492 -1.6090428 0.75384825 -0.18325837 -1.0363072 -0.2741486 -2.0280464 -2.2879572 -0.5808019 1.1193429 -0.63138086 -1.1615047 0.122472405 0.4913958 0.9617419 -0.3809534 -1.4703715 0.7140765 -0.06638371 1.3408675 -1.8848748 0.90402067 1.5271703 0.0990278 1.9060941 0.069077395 -1.6577623 -1.4247718 -0.10496515 0.825847 0.13213325 -1.9751688 -0.6206302 3.3718178 -0.5337459 0.6246326 0.9552691 -0.32072484 -0.96920633 -1.7912447 1.0549567 0.6504993 -0.46950042 0.39723638 1.0310602 0.36712384 1.1283778 0.6470805 0.52118355 -0.22997211 0.5234416 -0.23091418 0.108832836 0.30159363 -1.3604314 0.39892256 1.8078157 1.4876136 -0.81471336 -0.5632344 0.7821303 -0.07485582 0.008112011 -0.2547401 -0.48520023 1.302497
102 -0.2653726 -3.057799 -1.9432796 -1.6618042 -1.0450969 0.03821348 0.22061445 -0.7386284 -0.36616552 0.2244744 0.96345645 0.7597606 -0.31220576 -0.5467921 -0.9704934 -0.31193256 -1.1731149 -0.81424606 -0.4626794 0.21212156 1.870128 -0.20052278 0.5924744 0.10376088 -0.17041366 1.3229911 -1.2389063 -0.26795244 0.6922606 -0.1019866 1.2355027 -0.47230858 0.21934608 -2.3751593 -2.0220146 -0.0406951 -0.13430567 -2.076797 0.33018076 0.45901054 0.5908715 -1.1013026 0.33878633 0.15247913 -0.81525767 -1.1177695 0.14712115 0.8414812 -0.39658907 0.14820367 -0.642311 1.2754848 -0.11972601 2.004126 -0.4348475 0.44832966 -1.1910161 -0.49648184 0.7615521 0.85283715 0.042817596 0.21220315 2.5563114 -0.06841226 -0.6278 -0.4350083 2.7680166 -0.11405329 0.1364099 0.107262395 -2.2798588 0.37317097 -0.3326935 -0.049796842 1.8284464 0.07265453 -0.35739002 -2.2253728 -0.028699242 0.04223073 -1.2830292 1.2775501 0.023908978 0.8145472 1.5050995 2.1534283 2.509239 -1.7086576 -2.027912 -2.668901 0.16053015 0.35426137 0.7195554 1.4291503 1.398411 1.0008447 -0.52603966 -0.008733841 -0.52846295 1.3679993 -0.011658058 -1.3706523 -0.107294224 1.7375443 -0.47271565 0.7082659 -0.17103785 1.1974615 -1.1917801 0.6447344 0.28011325 1.2118129 -0.52345985 1.1018946 -0.2423089 -1.0159677 -0.5986636 -1.3102013 1.2760253 -0.5852002 -2.21081 0.65692055 0.056014694 0.553407 -0.22879574 0.8803752 1.0133296 0.69475096
494 -0.0015589778 0.059280653 1.5983484 0.7697301 -0.58956325 -0.5585529 -1.0319479 2.0188453 -0.06257233 1.4712055 -1.100747 -0.54049987 0.8833908 -0.22137497 0.88253695 -0.22321045 2.6240056 0.058817443 0.098711126 -0.68360823 1.3088528 2.3790088 2.3332386 2.1392808 -2.3898811 -0.24364854 -0.5173333 -0.16998915 -1.631934 -0.72224796 1.7047397 -0.87846196 0.38754278 -1.0674419 1.921105 -0.0687182 -0.64794487 -0.8726723 1.1013147 -1.0138651 -0.16833475 -1.4885185 -1.4427218 -0.36909783 -0.693423 -0.36627603 0.84333825 0.16526274 -0.49285144 0.8542463 -0.65751165 1.5025606 0.14177561 -0.25396416 -1.0523567 -0.4006337 0.7348153 -0.8076251 0.90914226 -1.2809126 -2.1887867 -0.44886854 0.3955609 -1.3773443 1.1217028 -0.9636843 2.1838672 0.68482673 -0.08884403 -1.3292624 -0.31258145 -0.8301424 0.88595086 -0.13362889 -0.09634046 0.6751108 -1.0614564 -0.21476534 1.6066475 0.71305305 0.9389017 1.8672403 0.1473047 -0.38571757 0.6592483 0.79829526 -1.8259113 -0.23161873 -0.19066973 1.7677498 0.42075422 -0.20154448 -2.3737156 -1.0597517 -0.9381209 1.0275686 -0.22190239 1.7300825 -0.20929633 -1.8340833 0.3865372 1.8590693 0.024554199 0.41297054 -0.055607393 0.5788123 0.6229199 0.42472953 -0.4134408 0.6086016 0.8141876 -1.2678031 0.5763694 -0.23927274 -1.6766806 1.4760677 0.562428 -0.042734828 1.4225024 1.0654756 -1.1288584 1.35524 0.2086545 1.8038983 1.9795922 -0.5387196 0.17356911 -1.1218557
656 -1.4651917 0.44472256 -0.8315352 -0.037623055 0.34253368 -0.50513786 0.5775507 -1.3753555 -1.3760246 1.209294 0.42704746 -0.35985333 -0.9636493 0.47589976 0.066396 -0.07508752 0.20695898 -0.4156468 -0.99697995 -2.6765387 1.0252392 1.177688 -1.6325692 -1.2794253 3.045378 1.8664693 -2.3339589 1.1643674 0.5809086 0.25992763 1.6230727 0.4492547 0.095470496 -1.6307427 0.81571597 0.40725014 -1.3871655 -0.9991855 -0.8441523 -0.9355866 0.3790565 -0.78979427 -1.2427473 -0.095466286 2.2100222 0.12898974 -0.3705071 0.40378815 0.39770892 1.1288235 1.6056066 1.0922847 -0.108789414 1.012681 0.3060119 -1.1824076 0.44482908 -0.7406513 0.8414369 -0.022966174 -0.9242751 0.43506446 1.6984926 -1.0916059 0.46226344 0.18013662 0.8969924 -0.6385116 -1.075708 -1.2166669 0.7907848 -1.4084725 0.09240752 -0.67000324 -0.14023666 -0.24123517 -0.5504662 0.6501011 0.07119159 0.77456784 0.08133972 0.6242678 -0.62676156 -1.6275524 1.4564372 -0.7328955 0.84529495 0.7748846 -0.8201384 0.07069753 -1.4466436 0.17428386 -1.1137952 -0.26306382 -0.23042437 -2.0721405 1.559671 2.4214952 -0.83290595 0.42539522 -0.3620826 -0.74525845 -0.21939862 0.7680933 0.7337908 -0.29559982 1.2925961 -0.19065611 -0.4463958 0.351472 -1.1282877 1.0391076 -1.8700098 -1.4010972 -1.5767261 0.66231227 1.2452397 -1.0198433 0.17788927 0.97661716 -1.2521454 -0.7752426 -2.200384 1.5263573 -0.34082952 2.0025105 2.0937648 -0.18895641
444 2.814159 -2.0416355 0.16233322 -0.8062845 -0.44697058 -0.5494913 -0.39783728 0.6106036 -0.6155604 1.1180096 -0.45998132 0.5226794 -2.2971084 -1.1801919 0.52656716 1.342022 2.1815183 1.0311602 0.78634316 0.9500285 0.47648922 0.044869732 -0.36040443 2.3150184 -1.5862665 0.27773824 -0.18276617 -0.51457906 -0.27910945 0.8844861 0.0067648496 -1.6104001 0.13812953 -1.3209677 1.6174505 0.3390903 2.510925 -0.8281007 -1.0021242 -1.1926175 -0.7058113 -1.6391181 -1.92108 1.1539434 -1.0257041 -0.016838625 2.582604 0.28619885 -1.9831845 0.96020776 0.55388576 0.2175115 -0.24276201 1.2754209 -0.06409699 -1.9966332 0.48040563 2.3169792 -1.9025261 -0.7935454 0.0072871894 1.0185302 0.11858903 -0.760941 0.35147095 -1.024644 -0.47685924 -0.42753142 -1.5718725 -1.7498072 -0.2955326 -1.376652 1.3395181 -2.1877477 -0.822467 -0.33747777 -0.4708777 -0.26769596 0.66624594 -0.8659428 1.4515398 1.3449084 -0.53556204 2.0760653 1.9015017 -0.18725206 -1.8023384 0.5259306 -0.6010127 -1.5383185 1.5438883 1.5164865 -0.40308756 -1.3094152 -0.64235383 0.47504836 -2.31129 0.43275917 0.23356223 -1.9413215 1.0300245 0.18082017 0.10134736 -0.15563565 1.2321044 -0.3980431 0.004410622 1.7812247 -0.02653102 -0.6550036 2.702319 -1.7986368 0.6167728 1.0911891 -1.3287816 1.3312229 -0.25932887 1.1537768 0.5648617 0.5343885 -1.2410002 1.5513694 0.9180404 0.60621953 -0.6743624 -0.7459984 -1.0961238 -1.0377257
222 -0.9264668 1.5581229 1.1669722 -2.4351993 -0.6130815 1.6909217 -1.0285048 1.6897049 0.54551893 1.269261 0.44607982 -1.3960882 0.97390425 -1.4426316 -0.68728507 0.41951618 -1.1801454 1.1132472 -0.018645763 -0.37178358 -1.8009462 -0.08113028 -0.1607242 -1.6402223 1.765702 -0.647457 0.6042121 0.4296849 0.14503556 -1.1610665 1.6732628 1.2258092 1.6011173 -0.15395561 -0.48326513 0.11211652 -0.57914 -0.14431535 0.98690337 1.07541 1.6157343 1.3273138 0.48353302 -0.13222252 0.32158536 -1.9313269 0.080162 -0.6372511 0.11938711 0.4680684 -1.6956719 1.0934073 -2.618404 2.2007418 -0.36821124 0.54727656 -2.0241246 1.3456715 -0.223747 -1.8038028 -1.3801804 -0.053047203 0.25899217 1.834903 -0.7938598 0.924666 -1.698083 1.3923159 1.2690634 1.504234 1.1535865 1.9227315 0.75418866 0.18747509 0.7896285 1.4529225 -1.7772737 1.1805775 -0.15996405 -0.44183883 2.3582935 -0.9593798 -0.7503569 -0.19008833 0.10362439 -0.51973337 -1.0265247 1.374795 -1.0495297 -0.4855295 -0.6358767 2.4576614 0.22250177 1.7183229 0.4666431 1.0884012 -0.26828152 -2.6885517 2.281099 -0.41164768 -0.60627204 0.9438457 -2.6208217 0.49916834 -1.0480028 1.7000278 -1.1729727 -0.34976333 0.7981246 1.5479712 1.6400762 -1.2870095 -0.034848936 0.49036372 -1.2398969 -1.627819 0.58624756 1.0157164 -0.07172511 0.36042276 -0.042313516 0.31741533 -0.85569704 0.48147726 -0.7717542 2.0929105 -0.38417667 0.7876787
242 0.015328044 0.7899124 1.1835756 1.5672216 -2.0242486 0.30353776 0.336009 -0.45700842 1.0178143 -0.7441318 -0.55794954 -2.2465422 0.52410185 -0.31593037 0.5689067 -3.1608355 -0.31673878 0.2793806 -0.915086 -2.2016873 2.1423717 0.117683545 -1.5051087 -1.483857 2.0210268 -2.64992 0.37158155 1.4590589 0.45071465 -0.712233 0.09307873 0.4159042 1.575151 1.2708246 -0.04780643 1.848318 -0.5298501 0.80711395 -0.051668745 0.12643439 -1.3055941 -0.9118912 0.15077789 -0.15320738 0.37543634 0.7599231 -1.5769273 0.1685922 -2.1073787 1.0192255 -1.6322715 -0.8931625 0.4661591 -0.24032271 -0.70884705 -0.12817052 1.2186167 -0.09859259 0.22004277 -0.7324195 1.589518 0.23517631 0.18538213 -1.8127531 0.29177165 2.1215892 -1.4358063 -0.44248918 -2.5177963 -1.2994722 0.9753697 -0.30642015 0.067798235 -0.48928246 -0.10923562 -0.30704114 0.18150021 1.5789244 1.0021206 1.1364139 -0.4677158 1.6921583 -1.9355903 -0.6337303 0.9681701 0.33406183 1.8450037 -1.1638104 -1.2945192 -0.0017193031 1.2313374 -1.1094843 1.0130787 -0.74886113 -1.6148189 1.8449485 -0.08946438 0.1300901 -0.33171856 -0.9433429 -0.41022798 -0.29140517 0.40775752 2.563558 0.37973896 -1.0413626 -0.6779736 1.0070134 -0.51606095 0.24701945 0.13608846 0.22449607 -0.22700174 -0.8447424 0.40307546 0.6775617 -0.97046196 -1.8901167 0.05163062 0.32748044 0.5424183 -0.8264917 0.8642193 -0.735905 2.4079013 0.6664314 -0.06160429 0.14400175
442 1.1360759 -0.14546621 1.5195185 -1.7060169 -0.15096267 -0.36448207 -1.901847 1.2129227 -0.9467027 1.0832986 -1.6299424 -0.029200934 -2.0544686 2.0773222 -0.4737831 1.3369001 0.65979505 0.8120841 -0.72086924 -0.7188254 0.37846255 0.8286468 -0.54533887 0.44671044 0.111596316 0.34423032 0.14195639 1.8259172 1.3091325 -1.0399804 -0.79170865 -1.3298514 -0.45137122 -0.855758 0.63058406 1.6383789 0.58444256 -1.4602232 -0.18509896 -1.0461694 -0.023591317 0.1849613 -0.08743687 -0.0859956 0.09749584 1.1392226 0.7160516 0.25005078 -1.2340331 0.53989893 0.06312829 -0.27919763 -1.9292159 1.7716951 0.9225561 1.5981312 1.6463715 0.83634514 0.4656046 0.5448495 0.55702686 -0.2962007 0.043296833 -1.3401277 -1.377947 1.4580183 0.9703399 1.276975 0.46289837 0.94307715 -0.3529355 1.2867643 1.5603355 0.19347318 -0.77830315 1.2818329 -0.4368335 1.0426934 -0.056876194 -1.182855 -0.08210436 0.003118544 -2.4169827 0.598614 0.9684281 -0.26469487 1.6784462 0.92489153 0.86729515 -1.2155975 -0.9583821 -2.30741 2.4922106 0.6967686 -1.4632497 1.2643272 0.28267452 -0.57332927 1.5335017 0.091330245 -1.728377 -1.3732047 -0.310243 1.4763227 1.7486466 0.29489142 0.633364 -0.14561526 0.64096755 2.8550692 2.990174 0.99234426 0.09569764 -0.27517015 -0.40720847 -0.42894673 -0.3635808 -1.8530004 0.6445831 -0.54274106 -2.066083 0.9633224 -0.0063964995 0.38886976 1.0408229 -0.721521 -0.34603423 0.6767135
580 0.14937149 -1.6207784 0.28917786 -0.68969434 0.45823726 -0.42974296 1.5131171 0.55271983 0.34271586 -1.2861226 -1.66579 -0.02243999 -1.6773074 1.5792402 0.07753182 2.2999582 -0.011129722 1.4769409 1.8530624 -0.0028345727 0.36717585 -0.32468337 -0.2658589 1.6588492 1.8849738 1.5573907 -0.2253403 2.3848228 -0.21709855 -1.7956829 0.18390292 -1.0171095 0.15052955 0.094982676 0.5816389 -0.01961967 -2.481763 0.18686353 0.15812427 -2.2269657 -1.5740802 -0.04080675 -1.1998421 0.06168146 0.4758039 -0.36761332 -0.9866651 0.45404613 -1.5295947 0.30743775 1.1045787 0.069756605 1.0573121 1.4113021 2.4729316 -0.77451587 2.4486692 -0.60298 -0.13676438 0.08831199 0.9311946 0.1886544 0.458123 0.33042726 0.13713104 0.7883278 1.2278593 1.8550911 1.6758714 -0.7119865 -1.126998 -0.34892282 -1.2703633 0.07533345 0.48456368 -0.4772749 1.0119693 0.11779482 1.4179242 -0.2756998 2.3572972 0.17913957 1.9773225 -0.5556421 1.3911183 -2.2814105 -1.4012586 0.5979533 0.4678856 0.4674502 -0.7759344 1.2182978 0.8865923 0.49501094 -0.009006975 0.42114234 -1.6477996 -0.5857644 0.5103711 1.696648 -2.8364186 0.14437684 1.322852 -0.47732344 0.2292059 0.9020528 0.27775076 -0.4056447 -0.9226171 1.1043061 0.74378896 0.93545926 0.7572071 -1.2191267 -0.6467012 0.798692 -0.3895471 0.0410568 -1.0871241 -1.0898542 -0.30276406 1.77963 -0.14568305 -2.287601 0.6923555 0.35579893 1.2166954 -1.4257793
